{"learner":{"attributes":{"best_iteration":"195","best_score":"0.02959327153421519","scikit_learn":"{\"_estimator_type\": \"classifier\"}"},"feature_names":[],"feature_types":[],"gradient_booster":{"model":{"gbtree_model_param":{"num_parallel_tree":"1","num_trees":"200"},"iteration_indptr":[0,1,2,3,4,5,6,7,8,9,10,11,12,13,14,15,16,17,18,19,20,21,22,23,24,25,26,27,28,29,30,31,32,33,34,35,36,37,38,39,40,41,42,43,44,45,46,47,48,49,50,51,52,53,54,55,56,57,58,59,60,61,62,63,64,65,66,67,68,69,70,71,72,73,74,75,76,77,78,79,80,81,82,83,84,85,86,87,88,89,90,91,92,93,94,95,96,97,98,99,100,101,102,103,104,105,106,107,108,109,110,111,112,113,114,115,116,117,118,119,120,121,122,123,124,125,126,127,128,129,130,131,132,133,134,135,136,137,138,139,140,141,142,143,144,145,146,147,148,149,150,151,152,153,154,155,156,157,158,159,160,161,162,163,164,165,166,167,168,169,170,171,172,173,174,175,176,177,178,179,180,181,182,183,184,185,186,187,188,189,190,191,192,193,194,195,196,197,198,199,200],"tree_info":[0,0,0,0,0,0,0,0,0,0,0,0,0,0,0,0,0,0,0,0,0,0,0,0,0,0,0,0,0,0,0,0,0,0,0,0,0,0,0,0,0,0,0,0,0,0,0,0,0,0,0,0,0,0,0,0,0,0,0,0,0,0,0,0,0,0,0,0,0,0,0,0,0,0,0,0,0,0,0,0,0,0,0,0,0,0,0,0,0,0,0,0,0,0,0,0,0,0,0,0,0,0,0,0,0,0,0,0,0,0,0,0,0,0,0,0,0,0,0,0,0,0,0,0,0,0,0,0,0,0,0,0,0,0,0,0,0,0,0,0,0,0,0,0,0,0,0,0,0,0,0,0,0,0,0,0,0,0,0,0,0,0,0,0,0,0,0,0,0,0,0,0,0,0,0,0,0,0,0,0,0,0,0,0,0,0,0,0,0,0,0,0,0,0,0,0,0,0,0,0],"trees":[{"base_weights":[1.5400763E-3,7.176461E-1,-1.372684E0,1.0941069E0,-1.0763415E0,-4.4555795E-1,-1.7990565E0,1.2543072E0,-3.0269754E-1,1.0286787E-1,-1.5859938E0,1.2398125E-1,-1.4590684E0,-9.515043E-1,-1.8985368E0,1.3556416E0,-4.3870184E-1,4.3830216E-1,-1.1927235E0,7.808168E-1,-1.2131557E0,-5.110152E-1,-1.7699162E0,7.9055643E-1,-1.3958665E0,-7.2288036E-1,-1.8295681E0,-4.5875333E-2,-1.6453062E0,-1.3934581E0,-1.9530932E0,1.501237E0,7.833277E-2,6.4155793E-1,-1.1738148E0,7.532444E-1,-8.081702E-1,-1.8392287E-1,-1.569117E0,1.2346355E0,-2.1758318E-1,-2.780649E-1,-1.6032332E0,4.856873E-1,-1.4967437E0,-1.0878209E0,-1.8670778E0,1.1507165E0,-3.188012E-1,-6.420485E-1,-1.8067727E0,-7.478112E-2,-1.7477643E0,-1.2063318E0,-1.9322379E0,6.803797E-1,-9.4196403E-1,-8.2562053E-1,-1.8484585E0,-1.809907E-1,-1.7766623E0,-1.7177439E0,-1.9821155E0,1.5988407E-1,7.4544966E-2,7.3910855E-2,-1.0679018E-1,1.0360529E-1,-6.725156E-2,-1.5283558E-2,-1.5677567E-1,1.04784004E-1,-1.1504652E-1,-1.7208848E-2,-1.5405631E-1,4.2071037E-2,-1.21531665E-1,-8.640609E-2,-1.7939222E-1,1.4674914E-1,1.9620577E-2,4.6846323E-2,-1.0447575E-1,4.4803005E-2,-1.1357963E-1,-2.8397066E-3,-1.6995324E-1,9.973135E-2,-6.495961E-2,-6.6145755E-2,-1.7453632E-1,-1.3239323E-2,-1.7970897E-1,-1.397822E-1,-1.9217475E-1,1.3342117E-1,-1.9074896E-2,3.485665E-2,-1.1676335E-1,6.7517324E-3,-1.4482212E-1,-3.7489366E-2,-1.8496189E-1,5.502016E-2,-1.1609309E-1,-9.813183E-2,-1.873394E-1,-6.435985E-2,-1.6431403E-1,3.2434057E-2,-1.9365631E-1,1.2572935E-1,-1.008826E-2,-1.7468734E-3,-1.4769869E-1,-2.8334979E-2,-1.7687587E-1,-1.0253312E-1,-1.8904343E-1,6.0634073E-2,-8.512612E-2,-1.1402676E-1,-1.9276796E-1,-7.113856E-2,-1.8384512E-1,8.95265E-3,-1.9828583E-1],"categories":[],"categories_nodes":[],"categories_segments":[],"categories_sizes":[],"default_left":[0,0,0,0,0,0,0,0,0,0,0,0,0,0,0,0,0,0,0,0,0,0,0,0,0,0,0,0,0,0,0,0,0,0,0,0,0,0,0,0,0,0,0,0,0,0,0,0,0,0,0,0,0,0,0,0,0,0,0,0,0,0,0,0,0,0,0,0,0,0,0,0,0,0,0,0,0,0,0,0,0,0,0,0,0,0,0,0,0,0,0,0,0,0,0,0,0,0,0,0,0,0,0,0,0,0,0,0,0,0,0,0,0,0,0,0,0,0,0,0,0,0,0,0,0,0,0],"id":0,"left_children":[1,3,5,7,9,11,13,15,17,19,21,23,25,27,29,31,33,35,37,39,41,43,45,47,49,51,53,55,57,59,61,63,65,67,69,71,73,75,77,79,81,83,85,87,89,91,93,95,97,99,101,103,105,107,109,111,113,115,117,119,121,123,125,-1,-1,-1,-1,-1,-1,-1,-1,-1,-1,-1,-1,-1,-1,-1,-1,-1,-1,-1,-1,-1,-1,-1,-1,-1,-1,-1,-1,-1,-1,-1,-1,-1,-1,-1,-1,-1,-1,-1,-1,-1,-1,-1,-1,-1,-1,-1,-1,-1,-1,-1,-1,-1,-1,-1,-1,-1,-1,-1,-1,-1,-1,-1,-1],"loss_changes":[3.5589965E4,1.6058549E4,4.896799E3,4.3979746E3,2.4788604E3,2.2538303E3,7.1371484E2,3.0253027E3,1.3346072E3,1.1122357E3,5.6847217E2,2.5343503E3,3.8182324E2,5.6129877E2,2.065293E2,3.0935234E3,7.920324E2,4.342251E2,3.4876672E2,3.730197E2,1.5416858E2,4.154703E2,1.6091455E2,6.951046E2,2.3508276E2,3.133355E2,5.7419678E1,2.5352882E2,8.2709595E1,3.4525732E2,4.3390625E1,1.100375E3,1.2908062E3,2.102008E2,2.383866E2,4.960153E2,1.03751114E2,1.5699161E2,1.045426E2,1.3651141E2,1.4686435E2,7.897108E1,4.528125E1,1.2300578E2,4.297159E1,2.0912756E2,5.248877E1,3.2342102E2,2.4226404E2,1.5490314E2,2.955664E1,1.976005E2,1.5760803E1,3.2060852E1,8.437012E0,9.712806E1,8.6223785E1,5.1807724E1,1.2040527E1,9.536672E1,5.2107056E1,9.0964355E1,9.556641E0,0E0,0E0,0E0,0E0,0E0,0E0,0E0,0E0,0E0,0E0,0E0,0E0,0E0,0E0,0E0,0E0,0E0,0E0,0E0,0E0,0E0,0E0,0E0,0E0,0E0,0E0,0E0,0E0,0E0,0E0,0E0,0E0,0E0,0E0,0E0,0E0,0E0,0E0,0E0,0E0,0E0,0E0,0E0,0E0,0E0,0E0,0E0,0E0,0E0,0E0,0E0,0E0,0E0,0E0,0E0,0E0,0E0,0E0,0E0,0E0,0E0,0E0,0E0,0E0],"parents":[2147483647,0,0,1,1,2,2,3,3,4,4,5,5,6,6,7,7,8,8,9,9,10,10,11,11,12,12,13,13,14,14,15,15,16,16,17,17,18,18,19,19,20,20,21,21,22,22,23,23,24,24,25,25,26,26,27,27,28,28,29,29,30,30,31,31,32,32,33,33,34,34,35,35,36,36,37,37,38,38,39,39,40,40,41,41,42,42,43,43,44,44,45,45,46,46,47,47,48,48,49,49,50,50,51,51,52,52,53,53,54,54,55,55,56,56,57,57,58,58,59,59,60,60,61,61,62,62],"right_children":[2,4,6,8,10,12,14,16,18,20,22,24,26,28,30,32,34,36,38,40,42,44,46,48,50,52,54,56,58,60,62,64,66,68,70,72,74,76,78,80,82,84,86,88,90,92,94,96,98,100,102,104,106,108,110,112,114,116,118,120,122,124,126,-1,-1,-1,-1,-1,-1,-1,-1,-1,-1,-1,-1,-1,-1,-1,-1,-1,-1,-1,-1,-1,-1,-1,-1,-1,-1,-1,-1,-1,-1,-1,-1,-1,-1,-1,-1,-1,-1,-1,-1,-1,-1,-1,-1,-1,-1,-1,-1,-1,-1,-1,-1,-1,-1,-1,-1,-1,-1,-1,-1,-1,-1,-1,-1],"split_conditions":[4.9666595E-1,6.8398696E-1,4.6494973E-1,6.7735624E-1,4.8349333E-1,6.44408E-1,2.1613577E-2,1.2701558E0,5.504905E-1,9.6832055E-1,3.308527E-1,2.8029424E-1,6.6160315E-1,1.4680482E-1,2.5737306E-1,7.154551E-1,9.287799E-1,7.350288E-1,3.7344548E-1,4.8062775E-1,9.888779E-1,8.3257514E-1,8.4057845E-2,6.6259444E-1,5.489668E-1,-8.839907E-2,5.1772666E-1,4.7598854E-1,4.1901958E-1,9.1272205E-2,3.188857E-1,5.462597E-1,8.03998E-1,1.6082071E0,1.1800182E0,8.7919223E-1,6.516864E-1,5.09045E-1,3.779506E-1,1.031603E0,4.2711824E-1,-1.0451531E-1,-1.9038835E-1,4.239185E-1,8.420313E-1,7.913783E-1,2.773025E-1,4.6225995E-1,5.859001E-1,4.7503924E-1,7.6183274E-2,7.310287E-1,2.7047765E-1,6.248174E-1,-6.725221E-1,3.257561E-1,3.51501E-1,2.3183614E-1,6.937636E-2,1.7014855E-1,2.981187E-1,1.3167508E-1,-9.32502E-1,1.5988407E-1,7.4544966E-2,7.3910855E-2,-1.0679018E-1,1.0360529E-1,-6.725156E-2,-1.5283558E-2,-1.5677567E-1,1.04784004E-1,-1.1504652E-1,-1.7208848E-2,-1.5405631E-1,4.2071037E-2,-1.21531665E-1,-8.640609E-2,-1.7939222E-1,1.4674914E-1,1.9620577E-2,4.6846323E-2,-1.0447575E-1,4.4803005E-2,-1.1357963E-1,-2.8397066E-3,-1.6995324E-1,9.973135E-2,-6.495961E-2,-6.6145755E-2,-1.7453632E-1,-1.3239323E-2,-1.7970897E-1,-1.397822E-1,-1.9217475E-1,1.3342117E-1,-1.9074896E-2,3.485665E-2,-1.1676335E-1,6.7517324E-3,-1.4482212E-1,-3.7489366E-2,-1.8496189E-1,5.502016E-2,-1.1609309E-1,-9.813183E-2,-1.873394E-1,-6.435985E-2,-1.6431403E-1,3.2434057E-2,-1.9365631E-1,1.2572935E-1,-1.008826E-2,-1.7468734E-3,-1.4769869E-1,-2.8334979E-2,-1.7687587E-1,-1.0253312E-1,-1.8904343E-1,6.0634073E-2,-8.512612E-2,-1.1402676E-1,-1.9276796E-1,-7.113856E-2,-1.8384512E-1,8.95265E-3,-1.9828583E-1],"split_indices":[320,331,322,326,330,313,311,336,327,335,329,330,316,327,318,316,335,324,325,328,336,335,326,318,331,329,314,318,325,326,323,328,315,338,337,335,325,330,324,336,327,323,328,326,336,336,328,327,314,325,329,318,328,318,311,324,316,335,326,310,327,315,314,0,0,0,0,0,0,0,0,0,0,0,0,0,0,0,0,0,0,0,0,0,0,0,0,0,0,0,0,0,0,0,0,0,0,0,0,0,0,0,0,0,0,0,0,0,0,0,0,0,0,0,0,0,0,0,0,0,0,0,0,0,0,0,0],"split_type":[0,0,0,0,0,0,0,0,0,0,0,0,0,0,0,0,0,0,0,0,0,0,0,0,0,0,0,0,0,0,0,0,0,0,0,0,0,0,0,0,0,0,0,0,0,0,0,0,0,0,0,0,0,0,0,0,0,0,0,0,0,0,0,0,0,0,0,0,0,0,0,0,0,0,0,0,0,0,0,0,0,0,0,0,0,0,0,0,0,0,0,0,0,0,0,0,0,0,0,0,0,0,0,0,0,0,0,0,0,0,0,0,0,0,0,0,0,0,0,0,0,0,0,0,0,0,0],"sum_hessian":[3.6163348E4,2.3774809E4,1.2388539E4,1.965143E4,4.1233794E3,3.9032214E3,8.485317E3,1.7629584E4,2.021845E3,1.2445643E3,2.8788154E3,2.499508E3,1.4037135E3,8.9244275E2,7.592875E3,1.6634152E4,9.9543176E2,1.103567E3,9.1827783E2,8.2168195E2,4.2288235E2,4.2114E2,2.4576753E3,1.7378162E3,7.6169196E2,4.7092673E2,9.3278674E2,3.8758673E2,5.04856E2,7.4278406E2,6.850091E3,1.4931944E4,1.7022085E3,4.0313943E2,5.9229236E2,8.8129E2,2.2227707E2,2.499246E2,6.683533E2,5.6474347E2,2.5693848E2,1.24984116E2,2.9789822E2,2.0965662E2,2.114834E2,3.0795575E2,2.1497195E3,1.3118713E3,4.2594476E2,2.6962335E2,4.9206857E2,2.891511E2,1.8177563E2,1.337334E2,7.9905334E2,2.1421342E2,1.733733E2,1.0127842E2,4.0357758E2,1.7873483E2,5.640492E2,7.5860046E2,6.09149E3,1.3223168E4,1.7087759E3,1.0799812E3,6.222273E2,3.1022043E2,9.2919E1,1.6529231E2,4.2700003E2,7.635774E2,1.1771262E2,1.1962124E2,1.0265583E2,1.5793222E2,9.19924E1,1.6275351E2,5.0559973E2,4.6096432E2,1.0377914E2,1.4068774E2,1.1625072E2,6.794463E1,5.7039482E1,1.7241005E1,2.8065723E2,1.4460883E2,6.5047806E1,4.934835E1,1.6213506E2,1.3171474E2,1.76241E2,2.2708728E2,1.9226323E3,1.1540216E3,1.5784978E2,2.3879167E2,1.8715308E2,1.4389134E2,1.2573201E2,1.4579645E1,4.7748892E2,1.8385329E2,1.05297806E2,2.6840033E1,1.549356E2,5.9523563E1,7.420984E1,1.3871199E0,7.976662E2,1.2287128E2,9.134214E1,6.3932854E1,1.0944045E2,6.513091E1,3.6147507E1,2.0815794E1,3.8276178E2,8.2234116E1,9.650072E1,1.0981858E2,4.5423062E2,8.19834E1,6.7661707E2,2.1405828E0,6.0893496E3],"tree_param":{"num_deleted":"0","num_feature":"500","num_nodes":"127","size_leaf_vector":"1"}},{"base_weights":[1.1721062E-3,7.031703E-1,-1.1933317E0,1.0248868E0,-8.6416614E-1,-3.2469553E-1,-1.6207085E0,1.1675256E0,-6.3295937E-1,2.3367375E-1,-1.3943781E0,5.4567295E-1,-1.4032936E0,-8.714675E-1,-1.728951E0,1.328104E0,1.1539794E-2,3.214194E-1,-1.3609183E0,8.0849457E-1,-9.132491E-1,-7.128588E-1,-1.6842695E0,9.170921E-1,-5.161862E-1,-6.4809936E-1,-1.666685E0,5.3609677E-2,-1.5609285E0,-1.3025409E0,-1.7878143E0,1.3951277E0,2.287419E-2,5.8706594E-1,-9.080227E-1,5.5513775E-1,-1.2394279E0,-4.6565527E-1,-1.6779802E0,1.1172694E0,-3.9426002E-1,-1.2183121E-1,-1.5068753E0,2.2623688E-1,-1.3120394E0,-8.4736514E-1,-1.7427876E0,1.1023389E0,-1.419102E-1,1.5363006E-1,-1.202078E0,2.9210711E-3,-1.4403591E0,-1.0967335E0,-1.7502016E0,6.48292E-1,-6.597196E-1,-8.067603E-1,-1.7114795E0,-2.1509203E-1,-1.6812922E0,-1.5303028E0,-1.8098384E0,1.4690886E-1,2.2687612E-2,7.907003E-2,-9.008794E-2,8.624554E-2,-1.0537554E-1,-4.09417E-3,-1.3750985E-1,9.321596E-2,-8.741766E-2,-5.339473E-3,-1.5122683E-1,3.3660542E-2,-1.0244097E-1,-1.0690024E-1,-1.7896965E-1,1.30399E-1,-1.6797721E-2,4.4621564E-2,-1.12043E-1,4.962745E-2,-1.1111804E-1,-7.648588E-2,-1.6979028E-1,5.5666815E-2,-1.14559166E-1,-1.5085372E-2,-1.5404902E-1,5.464867E-3,-1.4724332E-1,-3.5971474E-2,-1.758102E-1,1.22251175E-1,-6.922969E-2,4.1318566E-2,-9.885231E-2,7.924109E-2,-7.325611E-2,-4.2140555E-2,-1.5033539E-1,4.1676942E-2,-1.3830687E-1,-6.803074E-2,-1.6728242E-1,1.5064346E-2,-1.4590883E-1,-1.2300735E-1,-1.7838046E-1,9.51657E-2,-1.0616914E-1,1.47809675E-2,-1.1510485E-1,-1.1133826E-2,-1.4701265E-1,-1.11011304E-1,-1.7607185E-1,3.3828717E-2,-1.0801468E-1,-1.0187825E-1,-1.7693329E-1,-7.359831E-2,-1.6907938E-1,-1.607448E-1,-1.8174993E-1],"categories":[],"categories_nodes":[],"categories_segments":[],"categories_sizes":[],"default_left":[0,0,0,0,0,0,0,0,0,0,0,0,0,0,0,0,0,0,0,0,0,0,0,0,0,0,0,0,0,0,0,0,0,0,0,0,0,0,0,0,0,0,0,0,0,0,0,0,0,0,0,0,0,0,0,0,0,0,0,0,0,0,0,0,0,0,0,0,0,0,0,0,0,0,0,0,0,0,0,0,0,0,0,0,0,0,0,0,0,0,0,0,0,0,0,0,0,0,0,0,0,0,0,0,0,0,0,0,0,0,0,0,0,0,0,0,0,0,0,0,0,0,0,0,0,0,0],"id":1,"left_children":[1,3,5,7,9,11,13,15,17,19,21,23,25,27,29,31,33,35,37,39,41,43,45,47,49,51,53,55,57,59,61,63,65,67,69,71,73,75,77,79,81,83,85,87,89,91,93,95,97,99,101,103,105,107,109,111,113,115,117,119,121,123,125,-1,-1,-1,-1,-1,-1,-1,-1,-1,-1,-1,-1,-1,-1,-1,-1,-1,-1,-1,-1,-1,-1,-1,-1,-1,-1,-1,-1,-1,-1,-1,-1,-1,-1,-1,-1,-1,-1,-1,-1,-1,-1,-1,-1,-1,-1,-1,-1,-1,-1,-1,-1,-1,-1,-1,-1,-1,-1,-1,-1,-1,-1,-1,-1],"loss_changes":[3.0104209E4,1.1402689E4,4.932748E3,4.4373223E3,2.2422285E3,4.1158105E3,7.208008E2,3.2067676E3,1.0335123E3,8.282474E2,5.1194043E2,9.575069E2,3.8835303E2,7.1844104E2,1.9297266E2,1.3269219E3,1.1161858E3,2.3570374E2,2.3871826E2,3.1115826E2,1.9691129E2,4.3740982E2,8.7728516E1,3.5290625E2,2.8937427E2,2.6196735E2,6.714526E1,2.0486557E2,7.189441E1,3.8989844E2,3.599414E1,1.2462793E3,5.269095E2,5.870591E2,3.287483E2,3.0313977E2,2.7170135E1,9.988244E1,4.0450195E1,1.600484E2,1.0526347E2,1.11172585E2,3.2667664E1,1.3818527E2,1.25611084E2,6.829384E1,3.540674E1,3.3092993E2,1.26634895E2,1.8135934E2,7.2539734E1,1.6106644E2,3.9340668E1,8.524568E1,1.9894287E1,1.3761165E2,8.730092E1,5.0251373E1,1.3948608E1,1.1808483E2,3.917932E1,6.822778E1,6.8320312E0,0E0,0E0,0E0,0E0,0E0,0E0,0E0,0E0,0E0,0E0,0E0,0E0,0E0,0E0,0E0,0E0,0E0,0E0,0E0,0E0,0E0,0E0,0E0,0E0,0E0,0E0,0E0,0E0,0E0,0E0,0E0,0E0,0E0,0E0,0E0,0E0,0E0,0E0,0E0,0E0,0E0,0E0,0E0,0E0,0E0,0E0,0E0,0E0,0E0,0E0,0E0,0E0,0E0,0E0,0E0,0E0,0E0,0E0,0E0,0E0,0E0,0E0,0E0,0E0],"parents":[2147483647,0,0,1,1,2,2,3,3,4,4,5,5,6,6,7,7,8,8,9,9,10,10,11,11,12,12,13,13,14,14,15,15,16,16,17,17,18,18,19,19,20,20,21,21,22,22,23,23,24,24,25,25,26,26,27,27,28,28,29,29,30,30,31,31,32,32,33,33,34,34,35,35,36,36,37,37,38,38,39,39,40,40,41,41,42,42,43,43,44,44,45,45,46,46,47,47,48,48,49,49,50,50,51,51,52,52,53,53,54,54,55,55,56,56,57,57,58,58,59,59,60,60,61,61,62,62],"right_children":[2,4,6,8,10,12,14,16,18,20,22,24,26,28,30,32,34,36,38,40,42,44,46,48,50,52,54,56,58,60,62,64,66,68,70,72,74,76,78,80,82,84,86,88,90,92,94,96,98,100,102,104,106,108,110,112,114,116,118,120,122,124,126,-1,-1,-1,-1,-1,-1,-1,-1,-1,-1,-1,-1,-1,-1,-1,-1,-1,-1,-1,-1,-1,-1,-1,-1,-1,-1,-1,-1,-1,-1,-1,-1,-1,-1,-1,-1,-1,-1,-1,-1,-1,-1,-1,-1,-1,-1,-1,-1,-1,-1,-1,-1,-1,-1,-1,-1,-1,-1,-1,-1,-1,-1,-1,-1],"split_conditions":[4.2455667E-1,7.195306E-1,4.5718193E-1,8.687336E-1,5.239868E-1,2.8767338E-1,1.361127E-1,5.8860016E-1,5.99281E-1,9.5475566E-1,7.8669363E-1,6.144304E-1,4.217046E-1,3.3788657E-1,3.8025066E-1,1.4306171E0,5.671308E-1,1.7711319E-1,6.351376E-1,5.671308E-1,8.7690663E-1,4.6066993E-1,6.8645272E-3,6.9708097E-1,4.466263E-1,4.7852507E-1,3.5848624E-1,4.2532322E-1,1.9855386E-1,8.488447E-2,1.4635244E-1,7.778127E-1,1.5100069E0,1.0398974E0,3.7149444E-1,9.842144E-1,2.5047255E-1,3.794861E-1,4.8453963E-1,9.887103E-1,5.444774E-1,1.3481487E0,9.2351615E-1,1.0729396E0,2.4188982E-1,1.0529246E0,-4.5224067E-2,7.665156E-1,6.108629E-1,3.9872727E-1,6.4336136E-2,8.3257514E-1,4.797288E-1,1.306999E-2,3.4492463E-2,2.1954395E-2,3.2425427E-1,3.339217E-1,1.143137E-1,6.249016E-1,7.6881945E-2,-4.2255703E-1,1.389972E-1,1.4690886E-1,2.2687612E-2,7.907003E-2,-9.008794E-2,8.624554E-2,-1.0537554E-1,-4.09417E-3,-1.3750985E-1,9.321596E-2,-8.741766E-2,-5.339473E-3,-1.5122683E-1,3.3660542E-2,-1.0244097E-1,-1.0690024E-1,-1.7896965E-1,1.30399E-1,-1.6797721E-2,4.4621564E-2,-1.12043E-1,4.962745E-2,-1.1111804E-1,-7.648588E-2,-1.6979028E-1,5.5666815E-2,-1.14559166E-1,-1.5085372E-2,-1.5404902E-1,5.464867E-3,-1.4724332E-1,-3.5971474E-2,-1.758102E-1,1.22251175E-1,-6.922969E-2,4.1318566E-2,-9.885231E-2,7.924109E-2,-7.325611E-2,-4.2140555E-2,-1.5033539E-1,4.1676942E-2,-1.3830687E-1,-6.803074E-2,-1.6728242E-1,1.5064346E-2,-1.4590883E-1,-1.2300735E-1,-1.7838046E-1,9.51657E-2,-1.0616914E-1,1.47809675E-2,-1.1510485E-1,-1.1133826E-2,-1.4701265E-1,-1.11011304E-1,-1.7607185E-1,3.3828717E-2,-1.0801468E-1,-1.0187825E-1,-1.7693329E-1,-7.359831E-2,-1.6907938E-1,-1.607448E-1,-1.8174993E-1],"split_indices":[321,332,319,317,331,329,312,329,318,335,334,323,330,325,318,337,328,329,315,328,334,329,328,317,325,323,331,317,326,325,309,325,338,335,326,314,326,319,312,334,330,338,338,335,328,337,330,335,315,318,318,335,326,323,326,330,315,316,323,316,326,325,317,0,0,0,0,0,0,0,0,0,0,0,0,0,0,0,0,0,0,0,0,0,0,0,0,0,0,0,0,0,0,0,0,0,0,0,0,0,0,0,0,0,0,0,0,0,0,0,0,0,0,0,0,0,0,0,0,0,0,0,0,0,0,0,0],"split_type":[0,0,0,0,0,0,0,0,0,0,0,0,0,0,0,0,0,0,0,0,0,0,0,0,0,0,0,0,0,0,0,0,0,0,0,0,0,0,0,0,0,0,0,0,0,0,0,0,0,0,0,0,0,0,0,0,0,0,0,0,0,0,0,0,0,0,0,0,0,0,0,0,0,0,0,0,0,0,0,0,0,0,0,0,0,0,0,0,0,0,0,0,0,0,0,0,0,0,0,0,0,0,0,0,0,0,0,0,0,0,0,0,0,0,0,0,0,0,0,0,0,0,0,0,0,0,0],"sum_hessian":[3.5898758E4,2.2610941E4,1.3287816E4,1.8760455E4,3.850486E3,4.3824067E3,8.90541E3,1.7274479E4,1.485977E3,1.25418E3,2.5963062E3,2.4255872E3,1.9568196E3,1.1252968E3,7.7801133E3,1.516742E4,2.1070586E3,6.4323395E2,8.4274304E2,8.3565643E2,4.1852365E2,7.7583014E2,1.820476E3,1.7971226E3,6.284647E2,5.0689978E2,1.4499197E3,4.8093262E2,6.4436414E2,9.4652594E2,6.8335874E3,1.4426547E4,7.408729E2,1.2961804E3,8.1087823E2,5.600217E2,8.3212265E1,2.2104999E2,6.2169305E2,6.650053E2,1.7065111E2,1.7989467E2,2.3862897E2,3.0243936E2,4.7339078E2,1.199843E2,1.7004917E3,1.5295278E3,2.6759473E2,3.1835104E2,3.1011368E2,2.7879938E2,2.281004E2,1.8711331E2,1.2628064E3,2.6232822E2,2.186044E2,1.0828448E2,5.3607965E2,2.4491315E2,7.016128E2,5.439612E2,6.289626E3,1.3567352E4,8.591955E2,4.0466144E2,3.362115E2,1.1103053E3,1.858752E2,2.8426163E2,5.266166E2,4.4340817E2,1.1661354E2,1.5786085E1,6.742618E1,9.091361E1,1.3013638E2,9.800818E1,5.236849E2,5.80636E2,8.4369354E1,7.9278725E1,9.137238E1,1.1102752E2,6.886715E1,4.9880386E1,1.8874858E2,2.4421074E2,5.8228638E1,7.809652E1,3.9529425E2,4.9485737E1,7.049856E1,1.889107E1,1.6816006E3,1.4338339E3,9.569398E1,1.6193277E2,1.0566197E2,1.8506154E2,1.332895E2,8.702122E1,2.2309245E2,2.1523175E2,6.3567635E1,5.434483E1,1.7375557E2,4.2251217E1,1.4486209E2,7.891511E1,1.1838914E3,2.2317807E2,3.9150143E1,8.295762E1,1.3564677E2,5.343508E1,5.4849392E1,4.2353386E1,4.9372626E2,1.497356E2,9.517755E1,8.3774925E1,6.178378E2,9.237155E1,4.5158966E2,2.3708098E2,6.0525454E3],"tree_param":{"num_deleted":"0","num_feature":"500","num_nodes":"127","size_leaf_vector":"1"}},{"base_weights":[4.7757302E-4,6.3807297E-1,-1.1073669E0,8.9924765E-1,-1.0072544E0,-1.9685252E-1,-1.459116E0,1.076252E0,-2.3346661E-1,1.07814975E-1,-1.4146127E0,5.201367E-1,-1.2867715E0,-7.8556097E-1,-1.5985987E0,1.2581967E0,-5.3736363E-2,4.273964E-1,-1.0488546E0,6.479219E-1,-1.1197318E0,-5.6879085E-1,-1.5846063E0,8.879008E-1,-3.6422586E-1,-7.0493937E-1,-1.6020173E0,3.4405252E-1,-1.4201115E0,-9.6672165E-1,-1.6340687E0,1.3488137E0,4.2693055E-1,5.7458246E-1,-9.02591E-1,8.0337596E-1,-1.0447369E0,-2.8689953E-2,-1.3795434E0,1.188234E0,-1.9125485E-1,8.5515775E-2,-1.3965685E0,3.871354E-1,-1.2216644E0,-9.01016E-1,-1.6459821E0,1.1803997E0,-7.6962605E-2,2.1020333E-1,-1.0814358E0,9.911033E-2,-1.3490702E0,-9.44058E-1,-1.6453569E0,7.4971306E-1,-6.4978826E-1,-6.56518E-1,-1.6019365E0,2.441899E-1,-1.4797032E0,-1.3386526E0,-1.667124E0,1.4064588E-1,6.2436163E-3,7.879486E-2,-6.4928256E-2,8.5660055E-2,-6.844073E-2,1.3691919E-3,-1.2118876E-1,1.06489256E-1,-1.566512E-2,-2.3710307E-2,-1.3903467E-1,6.213787E-2,-9.432077E-2,-4.237102E-2,-1.5468745E-1,1.3409911E-1,-1.3356738E-2,5.6810837E-2,-8.665311E-2,7.565908E-2,-9.328897E-2,-5.1801004E-2,-1.631653E-1,7.6191776E-2,-9.412301E-2,7.1354858E-3,-1.4388686E-1,-9.240934E-3,-1.5296017E-1,-8.294671E-2,-1.665427E-1,1.2918706E-1,1.3462267E-2,5.7927705E-2,-7.8361444E-2,6.6098295E-2,-1.13257065E-1,-4.2941835E-2,-1.4632897E-1,6.09063E-2,-6.537652E-2,-3.7336405E-2,-1.543753E-1,9.322798E-2,-1.13835715E-1,-7.108229E-2,-1.6604124E-1,8.9409165E-2,-1.3169451E-1,2.2663068E-2,-1.1654855E-1,1.6580505E-2,-1.16912305E-1,-1.3396446E-1,-1.6729105E-1,8.454438E-2,-8.259075E-2,-8.356804E-2,-1.6242991E-1,-3.3553537E-2,-1.5244488E-1,-1.435931E-1,-1.677218E-1],"categories":[],"categories_nodes":[],"categories_segments":[],"categories_sizes":[],"default_left":[0,0,0,0,0,0,0,0,0,0,0,0,0,0,0,0,0,0,0,0,0,0,0,0,0,0,0,0,0,0,0,0,0,0,0,0,0,0,0,0,0,0,0,0,0,0,0,0,0,0,0,0,0,0,0,0,0,0,0,0,0,0,0,0,0,0,0,0,0,0,0,0,0,0,0,0,0,0,0,0,0,0,0,0,0,0,0,0,0,0,0,0,0,0,0,0,0,0,0,0,0,0,0,0,0,0,0,0,0,0,0,0,0,0,0,0,0,0,0,0,0,0,0,0,0,0,0],"id":2,"left_children":[1,3,5,7,9,11,13,15,17,19,21,23,25,27,29,31,33,35,37,39,41,43,45,47,49,51,53,55,57,59,61,63,65,67,69,71,73,75,77,79,81,83,85,87,89,91,93,95,97,99,101,103,105,107,109,111,113,115,117,119,121,123,125,-1,-1,-1,-1,-1,-1,-1,-1,-1,-1,-1,-1,-1,-1,-1,-1,-1,-1,-1,-1,-1,-1,-1,-1,-1,-1,-1,-1,-1,-1,-1,-1,-1,-1,-1,-1,-1,-1,-1,-1,-1,-1,-1,-1,-1,-1,-1,-1,-1,-1,-1,-1,-1,-1,-1,-1,-1,-1,-1,-1,-1,-1,-1,-1],"loss_changes":[2.5008066E4,9.657266E3,4.1417705E3,3.8885645E3,1.3986731E3,2.8179204E3,8.7517773E2,3.448463E3,1.4132285E3,5.475371E2,3.233496E2,7.078107E2,2.6131006E2,1.1490781E3,1.7161133E2,1.0876465E3,1.2416678E3,8.0275244E2,3.960077E2,2.6020673E2,8.432364E1,2.3697337E2,7.727637E1,4.3377454E2,2.6374188E2,2.6146915E2,2.4886963E1,2.3317935E2,1.4142969E2,2.5701074E2,6.9203125E1,9.6584375E2,5.528125E2,4.756041E2,2.8064685E2,2.900547E2,8.206372E1,1.7204515E2,1.411416E2,7.063483E1,1.16093124E2,3.3566166E1,4.155356E1,7.765524E1,6.3407715E1,7.958964E1,2.5947266E1,1.3729724E2,1.666627E2,2.1623341E2,7.0235016E1,8.692379E1,5.265338E1,2.2806976E1,1.1040283E1,1.2361328E2,7.6119576E1,8.410299E1,1.3175781E1,8.035457E1,2.5682007E1,1.3763623E2,1.2935547E1,0E0,0E0,0E0,0E0,0E0,0E0,0E0,0E0,0E0,0E0,0E0,0E0,0E0,0E0,0E0,0E0,0E0,0E0,0E0,0E0,0E0,0E0,0E0,0E0,0E0,0E0,0E0,0E0,0E0,0E0,0E0,0E0,0E0,0E0,0E0,0E0,0E0,0E0,0E0,0E0,0E0,0E0,0E0,0E0,0E0,0E0,0E0,0E0,0E0,0E0,0E0,0E0,0E0,0E0,0E0,0E0,0E0,0E0,0E0,0E0,0E0,0E0,0E0,0E0],"parents":[2147483647,0,0,1,1,2,2,3,3,4,4,5,5,6,6,7,7,8,8,9,9,10,10,11,11,12,12,13,13,14,14,15,15,16,16,17,17,18,18,19,19,20,20,21,21,22,22,23,23,24,24,25,25,26,26,27,27,28,28,29,29,30,30,31,31,32,32,33,33,34,34,35,35,36,36,37,37,38,38,39,39,40,40,41,41,42,42,43,43,44,44,45,45,46,46,47,47,48,48,49,49,50,50,51,51,52,52,53,53,54,54,55,55,56,56,57,57,58,58,59,59,60,60,61,61,62,62],"right_children":[2,4,6,8,10,12,14,16,18,20,22,24,26,28,30,32,34,36,38,40,42,44,46,48,50,52,54,56,58,60,62,64,66,68,70,72,74,76,78,80,82,84,86,88,90,92,94,96,98,100,102,104,106,108,110,112,114,116,118,120,122,124,126,-1,-1,-1,-1,-1,-1,-1,-1,-1,-1,-1,-1,-1,-1,-1,-1,-1,-1,-1,-1,-1,-1,-1,-1,-1,-1,-1,-1,-1,-1,-1,-1,-1,-1,-1,-1,-1,-1,-1,-1,-1,-1,-1,-1,-1,-1,-1,-1,-1,-1,-1,-1,-1,-1,-1,-1,-1,-1,-1,-1,-1,-1,-1,-1],"split_conditions":[4.347761E-1,8.697194E-1,3.7767553E-1,5.99281E-1,5.858971E-1,2.869054E-1,3.8870838E-1,5.922875E-1,6.2258154E-1,1.1471359E0,3.563482E-1,4.5759177E-1,5.858971E-1,1.5562466E-1,8.633753E-2,6.28938E-1,5.386558E-1,4.3370727E-1,4.5472077E-1,5.239868E-1,2.520896E-1,8.08275E-1,7.624691E-2,4.425737E-1,5.519007E-1,5.289656E-1,3.6556044E-1,5.866503E-1,1.3079892E-1,-1.3918909E-2,2.4605292E-1,1.2939636E0,5.9002376E-1,1.031603E0,1.3362549E-1,6.882709E-1,2.2810122E-1,-1.0451531E-1,2.0127791E-1,1.056706E0,-1.5400122E-1,1.3728614E0,1.0362551E0,1.4236336E0,7.035494E-1,1.031603E0,1.9582456E-1,8.308205E-1,4.584458E-1,4.0577817E-1,2.8987947E-1,4.3295573E-2,4.882584E-2,-7.458893E-1,-9.666791E-1,4.291657E-1,2.4575773E-1,5.103118E-1,4.0439698E-1,5.532166E-1,-6.369572E-2,1.143137E-1,-1.2729402E-1,1.4064588E-1,6.2436163E-3,7.879486E-2,-6.4928256E-2,8.5660055E-2,-6.844073E-2,1.3691919E-3,-1.2118876E-1,1.06489256E-1,-1.566512E-2,-2.3710307E-2,-1.3903467E-1,6.213787E-2,-9.432077E-2,-4.237102E-2,-1.5468745E-1,1.3409911E-1,-1.3356738E-2,5.6810837E-2,-8.665311E-2,7.565908E-2,-9.328897E-2,-5.1801004E-2,-1.631653E-1,7.6191776E-2,-9.412301E-2,7.1354858E-3,-1.4388686E-1,-9.240934E-3,-1.5296017E-1,-8.294671E-2,-1.665427E-1,1.2918706E-1,1.3462267E-2,5.7927705E-2,-7.8361444E-2,6.6098295E-2,-1.13257065E-1,-4.2941835E-2,-1.4632897E-1,6.09063E-2,-6.537652E-2,-3.7336405E-2,-1.543753E-1,9.322798E-2,-1.13835715E-1,-7.108229E-2,-1.6604124E-1,8.9409165E-2,-1.3169451E-1,2.2663068E-2,-1.1654855E-1,1.6580505E-2,-1.16912305E-1,-1.3396446E-1,-1.6729105E-1,8.454438E-2,-8.259075E-2,-8.356804E-2,-1.6242991E-1,-3.3553537E-2,-1.5244488E-1,-1.435931E-1,-1.677218E-1],"split_indices":[321,333,320,318,332,330,319,330,315,336,330,316,332,326,318,326,329,326,317,331,331,334,328,326,318,326,331,315,328,326,313,336,323,336,326,319,328,323,319,334,323,338,337,338,336,336,331,323,323,326,308,309,323,306,315,330,312,323,329,316,328,323,306,0,0,0,0,0,0,0,0,0,0,0,0,0,0,0,0,0,0,0,0,0,0,0,0,0,0,0,0,0,0,0,0,0,0,0,0,0,0,0,0,0,0,0,0,0,0,0,0,0,0,0,0,0,0,0,0,0,0,0,0,0,0,0,0],"split_type":[0,0,0,0,0,0,0,0,0,0,0,0,0,0,0,0,0,0,0,0,0,0,0,0,0,0,0,0,0,0,0,0,0,0,0,0,0,0,0,0,0,0,0,0,0,0,0,0,0,0,0,0,0,0,0,0,0,0,0,0,0,0,0,0,0,0,0,0,0,0,0,0,0,0,0,0,0,0,0,0,0,0,0,0,0,0,0,0,0,0,0,0,0,0,0,0,0,0,0,0,0,0,0,0,0,0,0,0,0,0,0,0,0,0,0,0,0,0,0,0,0,0,0,0,0,0,0],"sum_hessian":[3.540231E4,2.2470395E4,1.2931914E4,1.9392531E4,3.0778633E3,3.6041108E3,9.327803E3,1.6771734E4,2.620796E3,8.237455E2,2.254118E3,2.174299E3,1.4298119E3,1.6013918E3,7.726411E3,1.4445658E4,2.3260764E3,1.4478253E3,1.1729707E3,5.723778E2,2.5136768E2,3.77947E2,1.8761708E3,1.5356794E3,6.386196E2,5.0359317E2,9.2621875E2,5.761679E2,1.025224E3,4.1216745E2,7.3142437E3,1.3025153E4,1.4205054E3,1.3368606E3,9.892158E2,1.153642E3,2.9418332E2,2.874092E2,8.8556146E2,3.4793835E2,2.2443944E2,4.7081757E1,2.0428592E2,1.5354137E2,2.2440561E2,1.5586478E2,1.720306E3,1.1782645E3,3.5741483E2,3.5499957E2,2.8362006E2,2.2436768E2,2.792255E2,5.86474E1,8.6757135E2,4.0933383E2,1.6683405E2,1.9805997E2,8.27164E2,1.2280522E2,2.8936224E2,7.402343E2,6.5740093E3,1.2466415E4,5.5873773E2,1.0638892E3,3.5661618E2,1.0924644E3,2.4439618E2,2.4988728E2,7.3932855E2,9.065764E2,2.4706552E2,8.866761E1,2.0551572E2,1.6818115E2,1.1922804E2,1.324587E2,7.531027E2,3.118806E2,3.6057724E1,1.0571701E2,1.1872243E2,2.8535479E1,1.854628E1,4.379997E1,1.6048595E2,1.2008676E2,3.345461E1,3.237118E1,1.9203444E2,6.867233E1,8.719245E1,4.103056E1,1.6792755E3,1.0645566E3,1.1370797E2,1.854111E2,1.7200372E2,2.6615652E2,8.884305E1,1.0553799E2,1.7808206E2,1.3387787E2,9.048981E1,4.693178E1,2.322937E2,5.146804E0,5.3500595E1,1.4519553E1,8.530518E2,3.8313507E2,2.6198772E1,6.200986E1,1.0482419E2,7.631373E1,1.2174624E2,1.8038985E2,6.467742E2,7.876154E1,4.404368E1,5.429856E1,2.3506367E2,1.1611781E2,6.2411646E2,2.8100888E2,6.2930005E3],"tree_param":{"num_deleted":"0","num_feature":"500","num_nodes":"127","size_leaf_vector":"1"}},{"base_weights":[-8.0702454E-4,6.00913E-1,-1.0429163E0,8.383921E-1,-7.656965E-1,-2.5616542E-1,-1.3915342E0,1.0425426E0,-5.8814996E-1,6.519653E-2,-1.3438176E0,4.3395746E-1,-1.137931E0,-8.0862325E-1,-1.5136378E0,1.1824467E0,-4.3794733E-2,1.9535355E-1,-1.3337269E0,6.765841E-1,-7.327838E-1,-4.851154E-1,-1.4889781E0,7.264657E-1,-6.0145116E-1,-2.552334E-1,-1.359344E0,2.9721424E-1,-1.3451972E0,-1.0183823E0,-1.5484931E0,1.2429532E0,6.7019335E-4,6.4523953E-1,-6.946958E-1,6.4173764E-1,-6.0190934E-1,-3.8612908E-1,-1.5006602E0,1.0488825E0,-1.5369809E-1,1.7702382E-2,-1.2446666E0,3.4102464E-1,-1.2635525E0,-1.886305E-1,-1.5237731E0,8.719805E-1,-9.7582614E-1,1.3860222E-2,-1.2208351E0,3.1893858E-1,-1.3387032E0,-5.8613056E-1,-1.4646766E0,6.359269E-1,-6.7323464E-1,-6.9186276E-1,-1.5366455E0,-1.0170839E-1,-1.4872077E0,-1.1548369E0,-1.5648236E0,1.3231103E-1,5.562168E-2,8.9516535E-2,-6.799066E-2,9.249809E-2,-6.686806E-2,-5.604833E-3,-1.20260574E-1,9.05885E-2,-8.949389E-2,1.4641756E-2,-1.03859685E-1,5.145033E-2,-1.1312516E-1,-6.7380905E-2,-1.5652774E-1,1.21707074E-1,1.2560557E-3,6.4957365E-2,-7.6070204E-2,6.7151725E-2,-6.600625E-2,-4.120363E-2,-1.4160521E-1,7.648054E-2,-6.1553627E-2,-7.230449E-3,-1.4744191E-1,9.551199E-2,-1.01224124E-1,-1.0313612E-1,-1.5768671E-1,1.0578885E-1,-5.799094E-2,8.474234E-3,-1.3525908E-1,5.466491E-2,-6.1262455E-2,-1.0007126E-2,-1.4069206E-1,9.0831116E-2,-5.3018E-2,-5.0495226E-2,-1.5816946E-1,3.0066917E-2,-1.4789575E-1,-8.6170785E-2,-1.5259658E-1,7.985796E-2,-1.2843372E-1,8.141513E-3,-1.08835064E-1,-8.167315E-3,-1.2956858E-1,-1.1445401E-1,-1.5802452E-1,4.8969544E-2,-9.184199E-2,-6.603373E-2,-1.5514402E-1,-3.4679495E-2,-1.4773987E-1,-9.540739E-2,-1.5704568E-1],"categories":[],"categories_nodes":[],"categories_segments":[],"categories_sizes":[],"default_left":[0,0,0,0,0,0,0,0,0,0,0,0,0,0,0,0,0,0,0,0,0,0,0,0,0,0,0,0,0,0,0,0,0,0,0,0,0,0,0,0,0,0,0,0,0,0,0,0,0,0,0,0,0,0,0,0,0,0,0,0,0,0,0,0,0,0,0,0,0,0,0,0,0,0,0,0,0,0,0,0,0,0,0,0,0,0,0,0,0,0,0,0,0,0,0,0,0,0,0,0,0,0,0,0,0,0,0,0,0,0,0,0,0,0,0,0,0,0,0,0,0,0,0,0,0,0,0],"id":3,"left_children":[1,3,5,7,9,11,13,15,17,19,21,23,25,27,29,31,33,35,37,39,41,43,45,47,49,51,53,55,57,59,61,63,65,67,69,71,73,75,77,79,81,83,85,87,89,91,93,95,97,99,101,103,105,107,109,111,113,115,117,119,121,123,125,-1,-1,-1,-1,-1,-1,-1,-1,-1,-1,-1,-1,-1,-1,-1,-1,-1,-1,-1,-1,-1,-1,-1,-1,-1,-1,-1,-1,-1,-1,-1,-1,-1,-1,-1,-1,-1,-1,-1,-1,-1,-1,-1,-1,-1,-1,-1,-1,-1,-1,-1,-1,-1,-1,-1,-1,-1,-1,-1,-1,-1,-1,-1,-1],"loss_changes":[2.171359E4,7.1250747E3,3.4761943E3,5.447426E3,1.5614768E3,2.369633E3,6.239238E2,2.4867617E3,1.3684236E3,6.516292E2,2.382124E2,6.620991E2,3.3377148E2,9.042879E2,1.2376172E2,1.0364707E3,8.38102E2,4.0711832E2,1.8927832E2,2.3390744E2,2.2262277E2,1.7963876E2,7.387793E1,4.2292023E2,1.836293E2,2.1446555E2,1.10436035E2,1.6428308E2,1.272489E2,2.0627481E2,4.178711E1,7.5830664E2,4.3100702E2,3.342858E2,3.116286E2,2.984005E2,1.3437224E2,1.2212448E2,5.3448242E1,9.100452E1,1.15064865E2,1.0499952E2,4.8576782E1,5.5592007E1,3.5986588E1,4.228287E1,4.0108154E1,4.244497E2,5.3920135E1,8.133508E1,4.993509E1,1.1342849E2,2.3384476E1,1.3148352E2,4.3105957E1,1.1659987E2,4.0643333E1,8.622094E1,1.1740356E1,7.947301E1,1.5850342E1,7.088736E1,2.0894531E1,0E0,0E0,0E0,0E0,0E0,0E0,0E0,0E0,0E0,0E0,0E0,0E0,0E0,0E0,0E0,0E0,0E0,0E0,0E0,0E0,0E0,0E0,0E0,0E0,0E0,0E0,0E0,0E0,0E0,0E0,0E0,0E0,0E0,0E0,0E0,0E0,0E0,0E0,0E0,0E0,0E0,0E0,0E0,0E0,0E0,0E0,0E0,0E0,0E0,0E0,0E0,0E0,0E0,0E0,0E0,0E0,0E0,0E0,0E0,0E0,0E0,0E0,0E0,0E0],"parents":[2147483647,0,0,1,1,2,2,3,3,4,4,5,5,6,6,7,7,8,8,9,9,10,10,11,11,12,12,13,13,14,14,15,15,16,16,17,17,18,18,19,19,20,20,21,21,22,22,23,23,24,24,25,25,26,26,27,27,28,28,29,29,30,30,31,31,32,32,33,33,34,34,35,35,36,36,37,37,38,38,39,39,40,40,41,41,42,42,43,43,44,44,45,45,46,46,47,47,48,48,49,49,50,50,51,51,52,52,53,53,54,54,55,55,56,56,57,57,58,58,59,59,60,60,61,61,62,62],"right_children":[2,4,6,8,10,12,14,16,18,20,22,24,26,28,30,32,34,36,38,40,42,44,46,48,50,52,54,56,58,60,62,64,66,68,70,72,74,76,78,80,82,84,86,88,90,92,94,96,98,100,102,104,106,108,110,112,114,116,118,120,122,124,126,-1,-1,-1,-1,-1,-1,-1,-1,-1,-1,-1,-1,-1,-1,-1,-1,-1,-1,-1,-1,-1,-1,-1,-1,-1,-1,-1,-1,-1,-1,-1,-1,-1,-1,-1,-1,-1,-1,-1,-1,-1,-1,-1,-1,-1,-1,-1,-1,-1,-1,-1,-1,-1,-1,-1,-1,-1,-1,-1,-1,-1,-1,-1,-1],"split_conditions":[4.2552608E-1,8.1906736E-1,2.2328763E-1,7.5489897E-1,8.651269E-1,3.5032186E-1,3.1750235E-1,6.2133634E-1,8.0596864E-1,3.5032186E-1,-2.7563637E-2,6.667376E-1,2.981187E-1,9.810019E-2,-6.638201E-3,1.4306171E0,4.0987077E-1,5.526854E-1,5.0676554E-1,1.031603E0,6.400327E-1,1.0957868E0,1.2318437E-1,7.970188E-1,6.144304E-1,6.3862455E-1,1.9855386E-1,7.191999E-1,2.3929508E-1,6.295166E-2,-2.192779E-1,6.319169E-1,7.16831E-1,8.08275E-1,4.095077E-1,3.054533E-1,3.9705697E-1,3.325481E-1,1.0149384E-1,6.32982E-1,3.8698497E-1,1.3362549E-1,-1.6097404E-1,1.0398974E0,9.2351615E-1,1.0189016E0,7.1351784E-1,8.407982E-1,8.677091E-1,1.0976889E-1,-9.198016E-2,4.942236E-1,6.923356E-1,4.8867333E-1,-1.0451531E-1,4.9137497E-1,3.325481E-1,6.149534E-1,3.0582044E-1,5.0675523E-1,-2.0623913E-1,2.838069E-1,-2.3750165E-1,1.3231103E-1,5.562168E-2,8.9516535E-2,-6.799066E-2,9.249809E-2,-6.686806E-2,-5.604833E-3,-1.20260574E-1,9.05885E-2,-8.949389E-2,1.4641756E-2,-1.03859685E-1,5.145033E-2,-1.1312516E-1,-6.7380905E-2,-1.5652774E-1,1.21707074E-1,1.2560557E-3,6.4957365E-2,-7.6070204E-2,6.7151725E-2,-6.600625E-2,-4.120363E-2,-1.4160521E-1,7.648054E-2,-6.1553627E-2,-7.230449E-3,-1.4744191E-1,9.551199E-2,-1.01224124E-1,-1.0313612E-1,-1.5768671E-1,1.0578885E-1,-5.799094E-2,8.474234E-3,-1.3525908E-1,5.466491E-2,-6.1262455E-2,-1.0007126E-2,-1.4069206E-1,9.0831116E-2,-5.3018E-2,-5.0495226E-2,-1.5816946E-1,3.0066917E-2,-1.4789575E-1,-8.6170785E-2,-1.5259658E-1,7.985796E-2,-1.2843372E-1,8.141513E-3,-1.08835064E-1,-8.167315E-3,-1.2956858E-1,-1.1445401E-1,-1.5802452E-1,4.8969544E-2,-9.184199E-2,-6.603373E-2,-1.5514402E-1,-3.4679495E-2,-1.4773987E-1,-9.540739E-2,-1.5704568E-1],"split_indices":[322,333,314,317,334,328,319,328,316,328,327,324,327,327,315,337,327,319,314,336,332,336,331,334,323,333,326,321,329,327,308,313,334,334,325,327,314,320,319,329,331,326,325,335,338,337,335,319,336,307,319,325,335,334,323,335,320,324,328,317,328,324,321,0,0,0,0,0,0,0,0,0,0,0,0,0,0,0,0,0,0,0,0,0,0,0,0,0,0,0,0,0,0,0,0,0,0,0,0,0,0,0,0,0,0,0,0,0,0,0,0,0,0,0,0,0,0,0,0,0,0,0,0,0,0,0,0],"split_type":[0,0,0,0,0,0,0,0,0,0,0,0,0,0,0,0,0,0,0,0,0,0,0,0,0,0,0,0,0,0,0,0,0,0,0,0,0,0,0,0,0,0,0,0,0,0,0,0,0,0,0,0,0,0,0,0,0,0,0,0,0,0,0,0,0,0,0,0,0,0,0,0,0,0,0,0,0,0,0,0,0,0,0,0,0,0,0,0,0,0,0,0,0,0,0,0,0,0,0,0,0,0,0,0,0,0,0,0,0,0,0,0,0,0,0,0,0,0,0,0,0,0,0,0,0,0,0],"sum_hessian":[3.4625723E4,2.1951322E4,1.2674399E4,1.8701844E4,3.2494785E3,3.8922388E3,8.78216E3,1.6360749E4,2.3410947E3,1.333631E3,1.9158477E3,2.1836729E3,1.708566E3,1.522329E3,7.2598315E3,1.4494042E4,1.866707E3,1.1418734E3,1.1992212E3,7.551844E2,5.784466E2,2.7766333E2,1.6381843E3,1.7028947E3,4.8077814E2,3.4305923E2,1.3655068E3,4.974889E2,1.0248401E3,4.7932883E2,6.7805024E3,1.3788048E4,7.0599365E2,9.067954E2,9.599116E2,7.3214417E2,4.097293E2,1.801143E2,1.0191069E3,5.2121045E2,2.3397394E2,2.3494797E2,3.434986E2,1.3497691E2,1.4268642E2,4.28597E1,1.5953246E3,1.5692411E3,1.3365361E2,2.4167238E2,2.3910574E2,2.24692E2,1.18367226E2,1.6450352E2,1.2010033E3,3.6903165E2,1.2845723E2,2.3329933E2,7.915408E2,1.6260712E2,3.167217E2,2.729363E2,6.5075664E3,1.2346066E4,1.4419817E3,3.0491833E2,4.0107532E2,7.478663E2,1.5892914E2,4.2572018E2,5.3419147E2,6.251025E2,1.0704166E2,1.5123355E2,2.5849576E2,8.168764E1,9.842666E1,7.469736E1,9.4440955E2,4.482827E2,7.292774E1,1.00675735E2,1.332982E2,1.1959158E2,1.15356384E2,5.921631E1,2.842823E2,9.367637E1,4.1300545E1,2.166082E1,1.21025604E2,1.7875824E1,2.4983875E1,1.5726093E2,1.4380637E3,1.3913556E3,1.7788548E2,3.523747E1,9.8416145E1,1.3067139E2,1.1100099E2,3.4265816E1,2.0483994E2,1.3259099E2,9.210101E1,2.7406893E1,9.0960335E1,8.2863075E1,8.164045E1,1.1220277E2,1.0888005E3,3.407529E2,2.8278757E1,4.5871033E1,8.2586205E1,1.1660257E2,1.1669676E2,8.19339E1,7.096069E2,9.45449E1,6.8062225E1,2.3643103E1,2.930786E2,7.84609E1,1.9447542E2,6.102994E1,6.446536E3],"tree_param":{"num_deleted":"0","num_feature":"500","num_nodes":"127","size_leaf_vector":"1"}},{"base_weights":[9.1148744E-4,5.636922E-1,-9.6544164E-1,8.785164E-1,-6.5666074E-1,-3.0992356E-1,-1.3549473E0,1.0129915E0,-2.4082687E-1,1.9043162E-1,-1.1737201E0,3.8420787E-1,-1.208505E0,-8.2201684E-1,-1.4498043E0,1.0866867E0,-3.652579E-1,4.1064E-1,-9.1051745E-1,6.2923366E-1,-7.539349E-1,-3.6904308E-1,-1.3647891E0,8.0800176E-1,-3.1426096E-1,-6.1478317E-1,-1.4354755E0,2.3877567E-2,-1.3215706E0,-9.708585E-1,-1.4759688E0,1.1612325E0,-1.4984642E-1,5.774062E-1,-9.7593844E-1,6.7438906E-1,-7.819501E-1,-1.0133604E-1,-1.2400068E0,9.271351E-1,-4.463857E-1,1.0510099E-1,-1.1802721E0,2.1810654E-1,-1.2565529E0,-9.235296E-1,-1.4701505E0,9.91432E-1,-3.021744E-1,2.972543E-1,-8.300006E-1,1.14909604E-1,-1.106119E0,-9.743622E-1,-1.4868852E0,4.3330282E-1,-8.6645555E-1,-3.8233644E-1,-1.4219882E0,-1.3940981E-1,-1.3626618E0,-1.0625392E0,-1.487503E0,1.2143024E-1,2.3301018E-2,4.52658E-2,-1.007342E-1,8.303709E-2,-2.8337901E-2,5.406685E-3,-1.3134514E-1,8.238951E-2,-8.90905E-2,4.01514E-3,-1.111046E-1,3.8111802E-2,-8.959163E-2,-8.09232E-2,-1.483693E-1,1.111699E-1,-1.0545739E-2,2.9534835E-2,-1.1871528E-1,5.226062E-2,-1.1108909E-1,-6.706983E-2,-1.4650121E-1,7.656466E-2,-5.175036E-2,5.4940586E-3,-1.4307766E-1,-6.7631267E-3,-1.312014E-1,-1.1205083E-1,-1.5056024E-1,1.12061694E-1,-7.5020336E-2,1.8642245E-2,-1.05602376E-1,8.1127584E-2,-5.633383E-2,-2.5241762E-2,-1.22685574E-1,6.424588E-2,-1.3639584E-1,-4.1455228E-2,-1.381518E-1,-8.6964695E-3,-1.4325385E-1,-6.915266E-2,-1.5005597E-1,6.356358E-2,-1.22660615E-1,4.0209305E-2,-1.07822396E-1,1.9205369E-2,-1.3662E-1,-1.0927301E-1,-1.510698E-1,5.6286186E-2,-7.758648E-2,-8.996916E-2,-1.4801838E-1,-1.8963695E-2,-1.3275048E-1,-9.04668E-2,-1.491371E-1],"categories":[],"categories_nodes":[],"categories_segments":[],"categories_sizes":[],"default_left":[0,0,0,0,0,0,0,0,0,0,0,0,0,0,0,0,0,0,0,0,0,0,0,0,0,0,0,0,0,0,0,0,0,0,0,0,0,0,0,0,0,0,0,0,0,0,0,0,0,0,0,0,0,0,0,0,0,0,0,0,0,0,0,0,0,0,0,0,0,0,0,0,0,0,0,0,0,0,0,0,0,0,0,0,0,0,0,0,0,0,0,0,0,0,0,0,0,0,0,0,0,0,0,0,0,0,0,0,0,0,0,0,0,0,0,0,0,0,0,0,0,0,0,0,0,0,0],"id":4,"left_children":[1,3,5,7,9,11,13,15,17,19,21,23,25,27,29,31,33,35,37,39,41,43,45,47,49,51,53,55,57,59,61,63,65,67,69,71,73,75,77,79,81,83,85,87,89,91,93,95,97,99,101,103,105,107,109,111,113,115,117,119,121,123,125,-1,-1,-1,-1,-1,-1,-1,-1,-1,-1,-1,-1,-1,-1,-1,-1,-1,-1,-1,-1,-1,-1,-1,-1,-1,-1,-1,-1,-1,-1,-1,-1,-1,-1,-1,-1,-1,-1,-1,-1,-1,-1,-1,-1,-1,-1,-1,-1,-1,-1,-1,-1,-1,-1,-1,-1,-1,-1,-1,-1,-1,-1,-1,-1],"loss_changes":[1.8399396E4,8.214909E3,3.1788027E3,2.5586055E3,1.9209089E3,2.8960098E3,3.936328E2,1.5415918E3,7.960255E2,6.895974E2,4.181809E2,7.757483E2,2.7178882E2,4.996842E2,8.1634766E1,1.3278867E3,4.443487E2,2.915199E2,2.3971979E2,3.644065E2,1.9350778E2,2.732829E2,1.00936035E2,3.3239795E2,3.124884E2,2.013836E2,3.323462E1,1.6076747E2,6.9571655E1,1.1261969E2,2.8381836E1,6.6891797E2,4.2403253E2,6.636583E1,1.6283777E2,1.7814926E2,4.5498863E1,1.0054758E2,6.5897766E1,1.697146E2,1.3609344E2,8.996109E1,5.0231995E1,1.2773827E2,4.7775757E1,1.418208E2,2.0308594E1,3.1578638E2,8.565334E1,2.0115625E2,1.2285831E2,1.7781168E2,6.3336548E1,6.072415E1,1.3258301E1,1.0223059E2,3.775679E1,4.1613575E1,1.79552E1,5.051017E1,1.1468689E1,4.0003174E1,1.2425781E1,0E0,0E0,0E0,0E0,0E0,0E0,0E0,0E0,0E0,0E0,0E0,0E0,0E0,0E0,0E0,0E0,0E0,0E0,0E0,0E0,0E0,0E0,0E0,0E0,0E0,0E0,0E0,0E0,0E0,0E0,0E0,0E0,0E0,0E0,0E0,0E0,0E0,0E0,0E0,0E0,0E0,0E0,0E0,0E0,0E0,0E0,0E0,0E0,0E0,0E0,0E0,0E0,0E0,0E0,0E0,0E0,0E0,0E0,0E0,0E0,0E0,0E0,0E0,0E0],"parents":[2147483647,0,0,1,1,2,2,3,3,4,4,5,5,6,6,7,7,8,8,9,9,10,10,11,11,12,12,13,13,14,14,15,15,16,16,17,17,18,18,19,19,20,20,21,21,22,22,23,23,24,24,25,25,26,26,27,27,28,28,29,29,30,30,31,31,32,32,33,33,34,34,35,35,36,36,37,37,38,38,39,39,40,40,41,41,42,42,43,43,44,44,45,45,46,46,47,47,48,48,49,49,50,50,51,51,52,52,53,53,54,54,55,55,56,56,57,57,58,58,59,59,60,60,61,61,62,62],"right_children":[2,4,6,8,10,12,14,16,18,20,22,24,26,28,30,32,34,36,38,40,42,44,46,48,50,52,54,56,58,60,62,64,66,68,70,72,74,76,78,80,82,84,86,88,90,92,94,96,98,100,102,104,106,108,110,112,114,116,118,120,122,124,126,-1,-1,-1,-1,-1,-1,-1,-1,-1,-1,-1,-1,-1,-1,-1,-1,-1,-1,-1,-1,-1,-1,-1,-1,-1,-1,-1,-1,-1,-1,-1,-1,-1,-1,-1,-1,-1,-1,-1,-1,-1,-1,-1,-1,-1,-1,-1,-1,-1,-1,-1,-1,-1,-1,-1,-1,-1,-1,-1,-1,-1,-1,-1,-1],"split_conditions":[4.1527238E-1,6.687328E-1,5.643942E-1,6.780415E-1,7.028626E-1,2.773025E-1,3.041435E-1,9.842144E-1,4.627806E-1,3.6307707E-1,4.6775487E-1,4.0611297E-1,4.5224106E-1,2.9974774E-1,-3.6492996E-2,1.1072781E0,5.0675523E-1,7.0866865E-1,3.7149444E-1,1.0791625E0,4.1197205E-1,1.1990794E0,3.8214666E-1,7.64713E-1,2.653118E-1,4.095077E-1,3.6091365E-2,7.4513364E-1,1.2936397E-1,2.862884E-1,-2.7629584E-1,7.5104946E-1,1.1660329E0,1.8229648E-1,5.291356E-1,7.8781205E-1,3.0438304E-1,2.8289312E-1,4.5425174E-1,6.5630597E-1,9.8166984E-1,1.0700977E0,-1.7364995E-1,3.3543244E-1,8.290798E-1,8.3257514E-1,5.9812367E-1,7.16831E-1,6.5356606E-1,2.9431137E-1,4.6542284E-1,7.8669363E-1,2.6123267E-1,4.8932925E-1,-6.676766E-1,2.803986E-1,1.389972E-1,3.202048E-1,2.2778207E-1,5.173789E-1,2.838069E-1,-2.694598E-2,-4.9382454E-1,1.2143024E-1,2.3301018E-2,4.52658E-2,-1.007342E-1,8.303709E-2,-2.8337901E-2,5.406685E-3,-1.3134514E-1,8.238951E-2,-8.90905E-2,4.01514E-3,-1.111046E-1,3.8111802E-2,-8.959163E-2,-8.09232E-2,-1.483693E-1,1.111699E-1,-1.0545739E-2,2.9534835E-2,-1.1871528E-1,5.226062E-2,-1.1108909E-1,-6.706983E-2,-1.4650121E-1,7.656466E-2,-5.175036E-2,5.4940586E-3,-1.4307766E-1,-6.7631267E-3,-1.312014E-1,-1.1205083E-1,-1.5056024E-1,1.12061694E-1,-7.5020336E-2,1.8642245E-2,-1.05602376E-1,8.1127584E-2,-5.633383E-2,-2.5241762E-2,-1.22685574E-1,6.424588E-2,-1.3639584E-1,-4.1455228E-2,-1.381518E-1,-8.6964695E-3,-1.4325385E-1,-6.915266E-2,-1.5005597E-1,6.356358E-2,-1.22660615E-1,4.0209305E-2,-1.07822396E-1,1.9205369E-2,-1.3662E-1,-1.0927301E-1,-1.510698E-1,5.6286186E-2,-7.758648E-2,-8.996916E-2,-1.4801838E-1,-1.8963695E-2,-1.3275048E-1,-9.04668E-2,-1.491371E-1],"split_indices":[320,332,319,325,333,328,313,314,324,326,331,317,329,324,310,335,317,328,326,336,329,337,329,323,310,325,324,318,323,323,306,328,336,323,315,335,326,319,328,329,335,337,319,328,336,335,334,334,324,323,315,334,323,333,321,329,317,328,326,317,324,323,312,0,0,0,0,0,0,0,0,0,0,0,0,0,0,0,0,0,0,0,0,0,0,0,0,0,0,0,0,0,0,0,0,0,0,0,0,0,0,0,0,0,0,0,0,0,0,0,0,0,0,0,0,0,0,0,0,0,0,0,0,0,0,0,0],"split_type":[0,0,0,0,0,0,0,0,0,0,0,0,0,0,0,0,0,0,0,0,0,0,0,0,0,0,0,0,0,0,0,0,0,0,0,0,0,0,0,0,0,0,0,0,0,0,0,0,0,0,0,0,0,0,0,0,0,0,0,0,0,0,0,0,0,0,0,0,0,0,0,0,0,0,0,0,0,0,0,0,0,0,0,0,0,0,0,0,0,0,0,0,0,0,0,0,0,0,0,0,0,0,0,0,0,0,0,0,0,0,0,0,0,0,0,0,0,0,0,0,0,0,0,0,0,0,0],"sum_hessian":[3.3830062E4,2.1379547E4,1.2450516E4,1.699539E4,4.384156E3,4.641279E3,7.8092363E3,1.5172678E4,1.8227129E3,1.6619818E3,2.7221738E3,2.6188533E3,2.0224254E3,1.1814147E3,6.627822E3,1.44027705E4,7.6990656E2,9.2412354E2,8.9858936E2,1.1349557E3,5.2702606E2,5.2290765E2,2.1992664E3,1.6298126E3,9.890407E2,5.6034705E2,1.4620784E3,4.3900302E2,7.424117E2,3.4529218E2,6.28253E3,1.3583911E4,8.1886017E2,3.027018E2,4.6720474E2,7.5711676E2,1.6700677E2,2.6039697E2,6.381924E2,8.8890454E2,2.4605122E2,1.7505582E2,3.5197025E2,3.1516095E2,2.0774669E2,4.2579156E2,1.7734747E3,1.3988009E3,2.3101166E2,4.5269794E2,5.363428E2,2.2578917E2,3.345579E2,1.4865831E2,1.31342E3,3.0106824E2,1.3793478E2,7.217221E1,6.7023944E2,1.11030136E2,2.3426204E2,1.7304594E2,6.109484E3,1.2848978E4,7.3493335E2,4.812149E2,3.3764523E2,2.3397682E2,6.872498E1,1.1551662E2,3.516881E2,6.9153937E2,6.557741E1,4.799366E1,1.19013115E2,1.623447E2,9.805227E1,2.3214319E2,4.0604916E2,7.5405023E2,1.348543E2,1.2324581E2,1.22805405E2,1.3073781E2,4.4318E1,1.2737465E2,2.245956E2,1.8065347E2,1.3450748E2,2.444183E1,1.8330486E2,1.3329459E2,2.9249698E2,1.6626884E2,1.6072058E3,1.302542E3,9.625887E1,1.4062212E2,9.038954E1,2.834525E2,1.6924544E2,2.1910031E2,3.172425E2,1.6683908E2,5.8950096E1,9.599802E1,2.3855988E2,5.102422E1,9.763409E1,2.3071466E1,1.2903486E3,2.6890714E2,3.2161102E1,1.9603846E1,1.1833094E2,4.6076847E1,2.6095362E1,1.4507861E2,5.251608E2,5.2840714E1,5.818942E1,4.917917E1,1.8508286E2,4.0695255E1,1.323507E2,4.182557E1,6.067658E3],"tree_param":{"num_deleted":"0","num_feature":"500","num_nodes":"127","size_leaf_vector":"1"}},{"base_weights":[-6.143017E-4,5.0733536E-1,-9.6468484E-1,7.023792E-1,-8.539782E-1,-2.8768864E-1,-1.2886015E0,8.6795837E-1,-6.971828E-1,2.235011E-1,-1.179038E0,4.385203E-1,-1.0347809E0,-6.039347E-1,-1.3602121E0,9.961394E-1,-3.9857453E-1,2.3519905E-1,-1.1234887E0,6.566643E-1,-5.7001776E-1,-4.246476E-1,-1.3573472E0,7.138392E-1,-6.200739E-1,-2.8947377E-1,-1.2699065E0,6.5121666E-2,-1.2536631E0,-9.1635925E-1,-1.3995752E0,1.0965495E0,3.4325293E-1,2.2021548E-1,-1.0492542E0,4.5436606E-1,-1.06845E0,-1.5417239E-1,-1.3336165E0,9.0307087E-1,-7.0120186E-1,-2.4597E-2,-1.1579021E0,3.880327E-1,-1.1013432E0,-5.972824E-1,-1.4186746E0,8.890657E-1,-3.1166697E-1,2.959496E-1,-1.008328E0,2.8681028E-1,-1.1923763E0,-7.787698E-1,-1.3949196E0,5.926044E-1,-6.936288E-1,-6.280374E-1,-1.4053913E0,-1.4660102E-2,-1.2893655E0,-8.940192E-1,-1.4130099E0,1.164202E-1,1.3325966E-2,6.668855E-2,-3.795242E-2,6.81006E-2,-5.692462E-2,-3.3128325E-2,-1.286631E-1,7.77773E-2,-5.9871167E-2,-7.864496E-3,-1.2568812E-1,4.7772758E-2,-6.808695E-2,-5.9011724E-2,-1.4367932E-1,1.1463916E-1,2.7131125E-2,1.922816E-2,-1.4052708E-1,4.4221994E-2,-1.0528888E-1,8.1111705E-3,-1.3090868E-1,8.207617E-2,-4.695028E-2,-4.4332474E-2,-1.4245431E-1,5.360381E-2,-9.858314E-2,-9.510923E-2,-1.4549975E-1,9.9031016E-2,-7.939103E-2,3.993118E-2,-8.093E-2,6.778394E-2,-5.5048216E-2,-1.1062966E-2,-1.24131165E-1,6.941358E-2,-6.94212E-2,-3.3211946E-2,-1.3630861E-1,-1.7394613E-3,-1.19132355E-1,-7.417869E-2,-1.419578E-1,7.4857764E-2,-1.2937059E-1,5.8535277E-3,-1.2600033E-1,1.660105E-2,-1.1131104E-1,-6.324848E-2,-1.4436273E-1,6.523752E-2,-5.0111074E-2,-7.918494E-2,-1.4235157E-1,-7.78559E-4,-1.3265513E-1,-1.0602635E-1,-1.4227718E-1],"categories":[],"categories_nodes":[],"categories_segments":[],"categories_sizes":[],"default_left":[0,0,0,0,0,0,0,0,0,0,0,0,0,0,0,0,0,0,0,0,0,0,0,0,0,0,0,0,0,0,0,0,0,0,0,0,0,0,0,0,0,0,0,0,0,0,0,0,0,0,0,0,0,0,0,0,0,0,0,0,0,0,0,0,0,0,0,0,0,0,0,0,0,0,0,0,0,0,0,0,0,0,0,0,0,0,0,0,0,0,0,0,0,0,0,0,0,0,0,0,0,0,0,0,0,0,0,0,0,0,0,0,0,0,0,0,0,0,0,0,0,0,0,0,0,0,0],"id":5,"left_children":[1,3,5,7,9,11,13,15,17,19,21,23,25,27,29,31,33,35,37,39,41,43,45,47,49,51,53,55,57,59,61,63,65,67,69,71,73,75,77,79,81,83,85,87,89,91,93,95,97,99,101,103,105,107,109,111,113,115,117,119,121,123,125,-1,-1,-1,-1,-1,-1,-1,-1,-1,-1,-1,-1,-1,-1,-1,-1,-1,-1,-1,-1,-1,-1,-1,-1,-1,-1,-1,-1,-1,-1,-1,-1,-1,-1,-1,-1,-1,-1,-1,-1,-1,-1,-1,-1,-1,-1,-1,-1,-1,-1,-1,-1,-1,-1,-1,-1,-1,-1,-1,-1,-1,-1,-1,-1],"loss_changes":[1.608022E4,5.710757E3,2.484415E3,4.3599053E3,9.4437964E2,1.9906443E3,3.749297E2,2.7313203E3,7.915026E2,2.1540193E2,2.780039E2,5.4278174E2,3.1654236E2,3.1631573E2,1.1992285E2,1.0010596E3,6.2298865E2,1.7917714E2,2.7806702E2,1.3618907E2,7.097501E1,2.1896136E2,7.7211426E1,2.657268E2,1.3708429E2,2.2667877E2,8.330176E1,1.4423447E2,3.415558E1,1.9102737E2,4.200293E1,8.6263574E2,4.7688916E2,2.8908353E2,1.2809485E2,1.8304858E2,1.674479E1,8.171129E1,8.527539E1,5.246927E1,3.977009E1,5.6095726E1,2.0065079E1,6.765794E1,4.553766E1,5.63468E1,2.4921875E1,2.1580408E2,7.685684E1,3.7630943E1,5.6405273E1,1.0690418E2,2.446312E1,8.82841E1,1.6571045E1,6.3495506E1,6.3050873E1,2.8631123E1,7.842285E0,5.4588146E1,2.5689087E1,6.424397E1,1.9854492E1,0E0,0E0,0E0,0E0,0E0,0E0,0E0,0E0,0E0,0E0,0E0,0E0,0E0,0E0,0E0,0E0,0E0,0E0,0E0,0E0,0E0,0E0,0E0,0E0,0E0,0E0,0E0,0E0,0E0,0E0,0E0,0E0,0E0,0E0,0E0,0E0,0E0,0E0,0E0,0E0,0E0,0E0,0E0,0E0,0E0,0E0,0E0,0E0,0E0,0E0,0E0,0E0,0E0,0E0,0E0,0E0,0E0,0E0,0E0,0E0,0E0,0E0,0E0,0E0],"parents":[2147483647,0,0,1,1,2,2,3,3,4,4,5,5,6,6,7,7,8,8,9,9,10,10,11,11,12,12,13,13,14,14,15,15,16,16,17,17,18,18,19,19,20,20,21,21,22,22,23,23,24,24,25,25,26,26,27,27,28,28,29,29,30,30,31,31,32,32,33,33,34,34,35,35,36,36,37,37,38,38,39,39,40,40,41,41,42,42,43,43,44,44,45,45,46,46,47,47,48,48,49,49,50,50,51,51,52,52,53,53,54,54,55,55,56,56,57,57,58,58,59,59,60,60,61,61,62,62],"right_children":[2,4,6,8,10,12,14,16,18,20,22,24,26,28,30,32,34,36,38,40,42,44,46,48,50,52,54,56,58,60,62,64,66,68,70,72,74,76,78,80,82,84,86,88,90,92,94,96,98,100,102,104,106,108,110,112,114,116,118,120,122,124,126,-1,-1,-1,-1,-1,-1,-1,-1,-1,-1,-1,-1,-1,-1,-1,-1,-1,-1,-1,-1,-1,-1,-1,-1,-1,-1,-1,-1,-1,-1,-1,-1,-1,-1,-1,-1,-1,-1,-1,-1,-1,-1,-1,-1,-1,-1,-1,-1,-1,-1,-1,-1,-1,-1,-1,-1,-1,-1,-1,-1,-1,-1,-1,-1],"split_conditions":[4.6494973E-1,9.583447E-1,3.3521527E-1,8.5649484E-1,6.300515E-1,2.3210162E-1,1.9110383E-1,7.057933E-1,4.3742967E-1,2.23799E-1,2.1378225E-2,7.350288E-1,3.771539E-1,2.23799E-1,2.9341731E-2,5.197451E-1,4.906626E-1,1.9313489E-1,3.063765E-1,1.6452496E0,2.9127985E-1,1.1232723E0,4.1987437E-1,8.124059E-1,3.6200446E-1,6.5168166E-1,3.4227028E-1,4.1420233E-1,1.7022511E-1,6.937636E-2,-3.1649667E-1,8.050768E-1,5.242965E-1,6.1219925E-1,3.0438304E-1,8.2816976E-1,-3.3820978E-1,5.173789E-1,3.9705697E-1,3.7449938E-1,1.5787963E0,1.3971013E0,2.3056994E-1,5.0078064E-1,1.27493E0,7.419009E-1,-5.350021E-1,7.5634384E-1,1.916654E-1,2.8997973E-1,2.1784888E-1,4.7852507E-1,6.614224E-1,3.877248E-1,-6.8992734E-1,4.2465726E-1,3.595188E-1,4.466263E-1,-6.2522724E-2,2.3187146E-1,4.2481583E-1,9.1272205E-2,-2.5826046E-1,1.164202E-1,1.3325966E-2,6.668855E-2,-3.795242E-2,6.81006E-2,-5.692462E-2,-3.3128325E-2,-1.286631E-1,7.77773E-2,-5.9871167E-2,-7.864496E-3,-1.2568812E-1,4.7772758E-2,-6.808695E-2,-5.9011724E-2,-1.4367932E-1,1.1463916E-1,2.7131125E-2,1.922816E-2,-1.4052708E-1,4.4221994E-2,-1.0528888E-1,8.1111705E-3,-1.3090868E-1,8.207617E-2,-4.695028E-2,-4.4332474E-2,-1.4245431E-1,5.360381E-2,-9.858314E-2,-9.510923E-2,-1.4549975E-1,9.9031016E-2,-7.939103E-2,3.993118E-2,-8.093E-2,6.778394E-2,-5.5048216E-2,-1.1062966E-2,-1.24131165E-1,6.941358E-2,-6.94212E-2,-3.3211946E-2,-1.3630861E-1,-1.7394613E-3,-1.19132355E-1,-7.417869E-2,-1.419578E-1,7.4857764E-2,-1.2937059E-1,5.8535277E-3,-1.2600033E-1,1.660105E-2,-1.1131104E-1,-6.324848E-2,-1.4436273E-1,6.523752E-2,-5.0111074E-2,-7.918494E-2,-1.4235157E-1,-7.78559E-4,-1.3265513E-1,-1.0602635E-1,-1.4227718E-1],"split_indices":[322,334,318,316,333,329,321,329,318,327,327,324,327,327,315,327,327,328,311,338,328,337,332,321,323,336,330,312,329,326,312,318,325,332,326,312,321,317,314,329,339,338,331,330,338,336,323,334,316,311,325,323,334,324,315,334,310,325,325,317,324,326,313,0,0,0,0,0,0,0,0,0,0,0,0,0,0,0,0,0,0,0,0,0,0,0,0,0,0,0,0,0,0,0,0,0,0,0,0,0,0,0,0,0,0,0,0,0,0,0,0,0,0,0,0,0,0,0,0,0,0,0,0,0,0,0,0],"split_type":[0,0,0,0,0,0,0,0,0,0,0,0,0,0,0,0,0,0,0,0,0,0,0,0,0,0,0,0,0,0,0,0,0,0,0,0,0,0,0,0,0,0,0,0,0,0,0,0,0,0,0,0,0,0,0,0,0,0,0,0,0,0,0,0,0,0,0,0,0,0,0,0,0,0,0,0,0,0,0,0,0,0,0,0,0,0,0,0,0,0,0,0,0,0,0,0,0,0,0,0,0,0,0,0,0,0,0,0,0,0,0,0,0,0,0,0,0,0,0,0,0,0,0,0,0,0,0],"sum_hessian":[3.2834926E4,2.1504896E4,1.133003E4,1.881031E4,2.6945862E3,3.667249E3,7.662781E3,1.6820674E4,1.9896376E3,6.2458374E2,2.0700024E3,1.8598247E3,1.8074244E3,7.264683E2,6.9363125E3,1.5274965E4,1.5457086E3,6.244152E2,1.3652223E3,4.041437E2,2.2044003E2,3.9637997E2,1.6736224E3,1.4762164E3,3.8360825E2,4.3398843E2,1.3734359E3,3.583539E2,3.681144E2,5.6701624E2,6.3692964E3,1.3238312E4,2.0366531E3,7.9260785E2,7.5310077E2,5.351057E2,8.93095E1,2.4353474E2,1.1216876E3,3.4235318E2,6.1790524E1,1.1489027E2,1.0554977E2,1.8028842E2,2.1609155E2,1.25758934E2,1.5478635E3,1.2609014E3,2.1531508E2,1.1426231E2,2.6934595E2,2.653251E2,1.6866333E2,2.801286E2,1.0933074E3,2.1152257E2,1.4683136E2,7.285373E1,2.9526068E2,1.6622531E2,4.0079095E2,1.6662375E2,6.2026724E3,1.2369393E4,8.689186E2,1.4068124E3,6.298407E2,5.0057257E2,2.9203528E2,1.8771931E2,5.653814E2,4.095819E2,1.2552379E2,1.4509633E1,7.4799866E1,1.1075293E2,1.3278183E2,1.3750867E2,9.841789E2,2.4657196E2,9.578122E1,2.7552507E1,3.4238014E1,7.941014E1,3.548013E1,1.1528987E1,9.402078E1,1.1985178E2,6.043664E1,7.19588E1,1.4413275E2,3.201064E1,9.37483E1,1.1353405E2,1.4343295E3,1.1897406E3,7.116082E1,8.873504E1,1.2658004E2,7.8874985E1,3.5387325E1,5.580421E1,2.1354173E2,1.8768837E2,7.763674E1,2.841539E1,1.4024794E2,9.881181E1,1.813168E2,4.0905903E1,1.0524015E3,1.9592526E2,1.5597305E1,6.3456142E1,8.337521E1,2.7877304E1,4.4976425E1,1.4745023E1,2.8051566E2,6.995706E1,9.626826E1,8.658394E1,3.14207E2,5.4983574E1,1.11640175E2,1.6998251E2,6.03269E3],"tree_param":{"num_deleted":"0","num_feature":"500","num_nodes":"127","size_leaf_vector":"1"}},{"base_weights":[-3.269116E-3,4.3937483E-1,-9.8518664E-1,6.1315703E-1,-7.724225E-1,-3.7019312E-1,-1.2765076E0,7.895044E-1,-9.3616545E-1,-7.012928E-2,-1.1858793E0,9.261399E-2,-9.9177414E-1,-6.039011E-1,-1.3313429E0,8.793182E-1,-4.8401847E-1,1.0821524E-1,-1.2087318E0,5.3331983E-1,-6.9614255E-1,-4.9826998E-1,-1.3032423E0,5.3272974E-1,-1.0782768E0,-5.2105564E-1,-1.2749088E0,1.2238465E-1,-1.2322919E0,-9.116709E-1,-1.3622321E0,9.921831E-1,1.7387282E-2,4.9395093E-1,-9.3787587E-1,5.382391E-1,-7.828462E-1,-4.92084E-2,-1.311953E0,7.943613E-1,-8.6639476E-1,-1.1150695E-1,-1.1899356E0,5.280539E-1,-9.2449325E-1,-6.877087E-1,-1.3524281E0,7.09748E-1,-5.9957916E-1,-2.6293695E-1,-1.2694528E0,1.3963151E-1,-1.1794859E0,-7.649215E-1,-1.3536919E0,6.6215104E-1,-7.15315E-1,-5.86529E-1,-1.3623497E0,2.434431E-1,-1.2026902E0,-1.0465461E0,-1.378273E0,1.1005809E-1,2.5251377E-2,4.415026E-2,-7.319412E-2,9.11851E-2,-5.527372E-2,-1.3360041E-2,-1.250362E-1,7.92792E-2,-6.974338E-2,-8.636169E-3,-1.11900404E-1,6.5587096E-2,-5.9339773E-2,-6.0347956E-2,-1.3663779E-1,1.0767921E-1,1.0601326E-2,-3.100589E-2,-1.5911989E-1,2.334312E-2,-9.44697E-2,-4.425032E-2,-1.3208447E-1,8.998396E-2,-4.6418212E-2,-2.8240612E-2,-1.2276228E-1,-6.3983137E-3,-1.3096592E-1,-6.257611E-2,-1.373757E-1,8.572995E-2,-6.0880788E-2,9.2862314E-4,-1.1350578E-1,2.522265E-2,-1.2544876E-1,-4.9427833E-2,-1.3489035E-1,5.4814786E-2,-7.55175E-2,-4.4877693E-2,-1.3063073E-1,8.386918E-4,-9.962971E-2,-6.949862E-2,-1.3789363E-1,9.7466625E-2,-2.8466135E-2,1.0315945E-2,-1.06618576E-1,1.0876967E-2,-1.1440579E-1,-1.2433698E-3,-1.380032E-1,7.852831E-2,-5.0677586E-2,-5.287406E-2,-1.3555665E-1,-3.996945E-2,-1.3257886E-1,-9.64947E-2,-1.3832785E-1],"categories":[],"categories_nodes":[],"categories_segments":[],"categories_sizes":[],"default_left":[0,0,0,0,0,0,0,0,0,0,0,0,0,0,0,0,0,0,0,0,0,0,0,0,0,0,0,0,0,0,0,0,0,0,0,0,0,0,0,0,0,0,0,0,0,0,0,0,0,0,0,0,0,0,0,0,0,0,0,0,0,0,0,0,0,0,0,0,0,0,0,0,0,0,0,0,0,0,0,0,0,0,0,0,0,0,0,0,0,0,0,0,0,0,0,0,0,0,0,0,0,0,0,0,0,0,0,0,0,0,0,0,0,0,0,0,0,0,0,0,0,0,0,0,0,0,0],"id":6,"left_children":[1,3,5,7,9,11,13,15,17,19,21,23,25,27,29,31,33,35,37,39,41,43,45,47,49,51,53,55,57,59,61,63,65,67,69,71,73,75,77,79,81,83,85,87,89,91,93,95,97,99,101,103,105,107,109,111,113,115,117,119,121,123,125,-1,-1,-1,-1,-1,-1,-1,-1,-1,-1,-1,-1,-1,-1,-1,-1,-1,-1,-1,-1,-1,-1,-1,-1,-1,-1,-1,-1,-1,-1,-1,-1,-1,-1,-1,-1,-1,-1,-1,-1,-1,-1,-1,-1,-1,-1,-1,-1,-1,-1,-1,-1,-1,-1,-1,-1,-1,-1,-1,-1,-1,-1,-1,-1],"loss_changes":[1.382169E4,4.6164194E3,1.7698291E3,5.2385225E3,7.9831226E2,9.1417993E2,2.4647656E2,1.9691475E3,5.579332E2,3.856806E2,1.3901245E2,9.3965875E2,1.8008923E2,2.3164436E2,7.9109375E1,1.5641367E3,5.0404053E2,1.5617395E2,1.8593457E2,1.9065422E2,1.4451682E2,1.1157292E2,4.380786E1,2.6603458E2,7.731799E1,2.2248767E2,3.2961914E1,1.0727229E2,2.204779E1,1.4415732E2,2.7783203E1,1.1396152E3,5.922754E2,1.5809464E2,1.9467596E2,8.697626E1,3.0976608E1,4.9529934E1,5.419751E1,8.517569E1,3.265199E1,6.64741E1,2.5983368E1,2.8140747E1,3.4646866E1,4.312197E1,2.0332275E1,2.2356671E2,5.8598076E1,4.929459E1,2.4171082E1,9.398966E1,2.3144318E1,2.067839E1,1.1207642E1,4.2933582E1,2.6827656E1,1.8483084E1,5.369507E0,3.5745018E1,3.452069E1,5.0630035E1,1.0022461E1,0E0,0E0,0E0,0E0,0E0,0E0,0E0,0E0,0E0,0E0,0E0,0E0,0E0,0E0,0E0,0E0,0E0,0E0,0E0,0E0,0E0,0E0,0E0,0E0,0E0,0E0,0E0,0E0,0E0,0E0,0E0,0E0,0E0,0E0,0E0,0E0,0E0,0E0,0E0,0E0,0E0,0E0,0E0,0E0,0E0,0E0,0E0,0E0,0E0,0E0,0E0,0E0,0E0,0E0,0E0,0E0,0E0,0E0,0E0,0E0,0E0,0E0,0E0,0E0],"parents":[2147483647,0,0,1,1,2,2,3,3,4,4,5,5,6,6,7,7,8,8,9,9,10,10,11,11,12,12,13,13,14,14,15,15,16,16,17,17,18,18,19,19,20,20,21,21,22,22,23,23,24,24,25,25,26,26,27,27,28,28,29,29,30,30,31,31,32,32,33,33,34,34,35,35,36,36,37,37,38,38,39,39,40,40,41,41,42,42,43,43,44,44,45,45,46,46,47,47,48,48,49,49,50,50,51,51,52,52,53,53,54,54,55,55,56,56,57,57,58,58,59,59,60,60,61,61,62,62],"right_children":[2,4,6,8,10,12,14,16,18,20,22,24,26,28,30,32,34,36,38,40,42,44,46,48,50,52,54,56,58,60,62,64,66,68,70,72,74,76,78,80,82,84,86,88,90,92,94,96,98,100,102,104,106,108,110,112,114,116,118,120,122,124,126,-1,-1,-1,-1,-1,-1,-1,-1,-1,-1,-1,-1,-1,-1,-1,-1,-1,-1,-1,-1,-1,-1,-1,-1,-1,-1,-1,-1,-1,-1,-1,-1,-1,-1,-1,-1,-1,-1,-1,-1,-1,-1,-1,-1,-1,-1,-1,-1,-1,-1,-1,-1,-1,-1,-1,-1,-1,-1,-1,-1,-1,-1,-1,-1],"split_conditions":[5.323065E-1,7.204656E-1,5.131007E-1,9.6432054E-1,6.9308937E-1,3.0723193E-1,-2.020131E-1,1.2459369E0,4.6783745E-1,4.049734E-1,-1.5380584E-1,4.968481E-1,3.0767676E-1,1.843837E-1,-1.0576771E-1,6.2225837E-1,5.702513E-1,6.882709E-1,1.1683434E-1,1.2827014E0,4.4497657E-1,6.8929577E-1,4.3477827E-1,8.471438E-1,8.369073E-2,4.401694E-2,-5.6181163E-2,6.142188E-1,3.4509614E-1,-4.300154E-2,-2.1744269E-1,5.626006E-1,6.249016E-1,1.5749204E0,1.1415756E0,-4.8791673E-2,4.3742967E-1,5.508563E-1,7.4723973E-3,2.4950017E-1,1.5651796E0,8.08275E-1,-3.6151475E-1,6.127414E-1,8.942369E-1,7.5231594E-1,-7.664116E-1,7.886817E-1,3.3521527E-1,1.1290493E0,3.6824355E-1,5.643942E-1,1.9550245E-1,-1.7662269E-1,-5.0458795E-1,3.9705697E-1,6.516097E-2,3.5819825E-2,-2.2497317E-1,4.248302E-1,8.289513E-2,2.981187E-1,-3.6390176E-1,1.1005809E-1,2.5251377E-2,4.415026E-2,-7.319412E-2,9.11851E-2,-5.527372E-2,-1.3360041E-2,-1.250362E-1,7.92792E-2,-6.974338E-2,-8.636169E-3,-1.11900404E-1,6.5587096E-2,-5.9339773E-2,-6.0347956E-2,-1.3663779E-1,1.0767921E-1,1.0601326E-2,-3.100589E-2,-1.5911989E-1,2.334312E-2,-9.44697E-2,-4.425032E-2,-1.3208447E-1,8.998396E-2,-4.6418212E-2,-2.8240612E-2,-1.2276228E-1,-6.3983137E-3,-1.3096592E-1,-6.257611E-2,-1.373757E-1,8.572995E-2,-6.0880788E-2,9.2862314E-4,-1.1350578E-1,2.522265E-2,-1.2544876E-1,-4.9427833E-2,-1.3489035E-1,5.4814786E-2,-7.55175E-2,-4.4877693E-2,-1.3063073E-1,8.386918E-4,-9.962971E-2,-6.949862E-2,-1.3789363E-1,9.7466625E-2,-2.8466135E-2,1.0315945E-2,-1.06618576E-1,1.0876967E-2,-1.1440579E-1,-1.2433698E-3,-1.380032E-1,7.852831E-2,-5.0677586E-2,-5.287406E-2,-1.3555665E-1,-3.996945E-2,-1.3257886E-1,-9.64947E-2,-1.3832785E-1],"split_indices":[323,331,324,317,333,314,316,336,316,328,325,333,316,330,318,319,333,319,319,337,327,334,332,321,327,330,307,325,329,328,314,330,316,338,337,328,318,314,308,325,340,334,322,330,336,337,323,327,318,336,332,319,327,306,304,314,319,319,326,320,329,327,325,0,0,0,0,0,0,0,0,0,0,0,0,0,0,0,0,0,0,0,0,0,0,0,0,0,0,0,0,0,0,0,0,0,0,0,0,0,0,0,0,0,0,0,0,0,0,0,0,0,0,0,0,0,0,0,0,0,0,0,0,0,0,0,0],"split_type":[0,0,0,0,0,0,0,0,0,0,0,0,0,0,0,0,0,0,0,0,0,0,0,0,0,0,0,0,0,0,0,0,0,0,0,0,0,0,0,0,0,0,0,0,0,0,0,0,0,0,0,0,0,0,0,0,0,0,0,0,0,0,0,0,0,0,0,0,0,0,0,0,0,0,0,0,0,0,0,0,0,0,0,0,0,0,0,0,0,0,0,0,0,0,0,0,0,0,0,0,0,0,0,0,0,0,0,0,0,0,0,0,0,0,0,0,0,0,0,0,0,0,0,0,0,0,0],"sum_hessian":[3.1798334E4,2.1918242E4,9.880091E3,1.9169645E4,2.7485984E3,3.1765344E3,6.7035566E3,1.7211125E4,1.9585187E3,1.01896515E3,1.7296332E3,1.8213058E3,1.3552286E3,5.0622604E2,6.1973306E3,1.6077581E4,1.1335442E3,4.0547614E2,1.5530425E3,5.1890845E2,5.0005673E2,2.5294096E2,1.4766923E3,1.3241339E3,4.9717194E2,5.10068E2,8.451606E2,2.351955E2,2.7103055E2,4.2696378E2,5.7703667E3,1.4215935E4,1.8616466E3,3.592804E2,7.7426373E2,2.7375748E2,1.3171866E2,1.27071846E2,1.4259707E3,4.3770972E2,8.119872E1,2.2952821E2,2.705285E2,7.415078E1,1.7879019E2,1.1037621E2,1.366316E3,1.1454365E3,1.7869737E2,9.488324E1,4.022887E2,2.5499094E2,2.5507704E2,1.1452367E2,7.3063696E2,1.431605E2,9.203499E1,4.635893E1,2.2467163E2,8.5954926E1,3.4100885E2,2.8223294E2,5.488134E3,1.2398464E4,1.8174705E3,1.1890579E3,6.725887E2,2.5685675E2,1.02423645E2,2.1704962E2,5.572141E2,2.2729279E2,4.6464676E1,4.3287766E1,8.84309E1,5.52639E1,7.1807945E1,1.0259061E2,1.32338E3,3.0996576E2,1.2774399E2,4.6745888E1,3.4452835E1,1.628349E2,6.669332E1,4.0972733E1,2.2955577E2,5.400755E1,2.014323E1,5.7957203E1,1.2083299E2,5.566012E1,5.4716095E1,3.9824932E1,1.3264911E3,1.0304725E3,1.14964005E2,8.407858E1,9.461879E1,6.2932217E1,3.195102E1,3.8070282E1,3.642184E2,1.75332E2,7.9658936E1,3.8394943E1,2.166821E2,2.6596392E1,8.792728E1,2.8020634E1,7.0261633E2,1.0761162E2,3.5548885E1,2.7827621E1,6.420737E1,2.0988682E1,2.5370245E1,2.9268942E0,2.2174474E2,4.9881588E1,3.6073338E1,6.387531E1,2.7713354E2,8.583404E1,1.9639891E2,6.798676E1,5.420147E3],"tree_param":{"num_deleted":"0","num_feature":"500","num_nodes":"127","size_leaf_vector":"1"}},{"base_weights":[-3.7117822E-3,4.6243623E-1,-8.368857E-1,7.3961884E-1,-5.8642733E-1,-1.7426553E-1,-1.1449168E0,8.544554E-1,-1.3353027E-1,1.4264907E-1,-1.0055412E0,4.5591488E-1,-9.846696E-1,-6.0950303E-1,-1.2622174E0,9.6353066E-1,-2.9141422E-2,3.0498084E-1,-8.3271736E-1,4.990904E-1,-7.6990443E-1,-3.464485E-1,-1.1947448E0,7.172215E-1,-2.6774704E-1,-3.948846E-1,-1.2119354E0,1.7129627E-1,-1.0595819E0,-8.2927775E-1,-1.304688E0,1.0436147E0,-1.9143194E-1,4.3284726E-1,-8.6425716E-1,6.174919E-1,-7.433821E-1,-1.9172505E-1,-1.114376E0,7.3284256E-1,-7.219057E-1,6.239716E-2,-1.0572075E0,4.7268623E-1,-9.587897E-1,-6.7398274E-1,-1.2833042E0,8.589324E-1,-6.6441834E-1,2.721305E-1,-8.6174744E-1,2.7398038E-1,-1.1139637E0,-4.334838E-1,-1.2647071E0,6.9548714E-1,-3.5350224E-1,-4.3100205E-1,-1.2445397E0,-2.6309922E-2,-1.222283E0,-1.0141855E0,-1.325496E0,1.0907783E-1,2.2756912E-2,3.65215E-2,-9.2294805E-2,5.8429193E-2,-5.4886647E-2,-4.0710093E-3,-1.23833254E-1,7.969078E-2,-6.1862063E-2,2.157253E-3,-1.14726625E-1,2.2495745E-2,-1.091753E-1,-1.2472081E-2,-1.20656006E-1,9.319306E-2,-9.703384E-3,-1.5328283E-2,-1.3519691E-1,3.671911E-2,-1.3173883E-1,-5.710968E-2,-1.3332771E-1,8.190732E-2,-3.994031E-2,-3.0241252E-3,-1.1524904E-1,-4.867865E-3,-1.14525035E-1,-8.284108E-3,-1.3004217E-1,9.893474E-2,-3.339258E-2,6.3636325E-2,-9.113413E-2,6.2186148E-2,-3.7751738E-2,4.2059734E-3,-1.04497686E-1,9.404411E-2,-2.321086E-2,-4.340146E-2,-1.280335E-1,8.688288E-3,-1.1852119E-1,-9.617274E-2,-1.3232458E-1,8.29443E-2,-1.0765817E-1,3.317293E-2,-7.4883156E-2,2.3803672E-2,-9.058519E-2,-5.4626297E-2,-1.283148E-1,4.601027E-2,-7.942433E-2,-5.857549E-2,-1.2974557E-1,-5.1815342E-2,-1.2857006E-1,-1.11490786E-1,-1.3358787E-1],"categories":[],"categories_nodes":[],"categories_segments":[],"categories_sizes":[],"default_left":[0,0,0,0,0,0,0,0,0,0,0,0,0,0,0,0,0,0,0,0,0,0,0,0,0,0,0,0,0,0,0,0,0,0,0,0,0,0,0,0,0,0,0,0,0,0,0,0,0,0,0,0,0,0,0,0,0,0,0,0,0,0,0,0,0,0,0,0,0,0,0,0,0,0,0,0,0,0,0,0,0,0,0,0,0,0,0,0,0,0,0,0,0,0,0,0,0,0,0,0,0,0,0,0,0,0,0,0,0,0,0,0,0,0,0,0,0,0,0,0,0,0,0,0,0,0,0],"id":7,"left_children":[1,3,5,7,9,11,13,15,17,19,21,23,25,27,29,31,33,35,37,39,41,43,45,47,49,51,53,55,57,59,61,63,65,67,69,71,73,75,77,79,81,83,85,87,89,91,93,95,97,99,101,103,105,107,109,111,113,115,117,119,121,123,125,-1,-1,-1,-1,-1,-1,-1,-1,-1,-1,-1,-1,-1,-1,-1,-1,-1,-1,-1,-1,-1,-1,-1,-1,-1,-1,-1,-1,-1,-1,-1,-1,-1,-1,-1,-1,-1,-1,-1,-1,-1,-1,-1,-1,-1,-1,-1,-1,-1,-1,-1,-1,-1,-1,-1,-1,-1,-1,-1,-1,-1,-1,-1,-1],"loss_changes":[1.194599E4,5.7345522E3,2.2521133E3,1.5644248E3,1.2600924E3,1.7894629E3,4.7232812E2,1.3288799E3,5.564974E2,4.902364E2,3.2610107E2,3.7296707E2,2.0496423E2,4.7659714E2,1.1251758E2,1.1353672E3,5.852625E2,3.6598587E2,1.2608148E2,3.097936E2,1.0131047E2,2.940857E2,9.2937256E1,2.8420166E2,1.6818256E2,2.0607031E2,4.488257E1,1.3685098E2,9.9460266E1,1.750058E2,3.2655273E1,4.414834E2,3.2473117E2,1.4553249E2,1.6639325E2,1.9122812E2,7.932063E1,8.078475E1,4.416748E1,1.5043304E2,6.2352013E1,4.6573223E1,4.1485687E1,7.617566E1,6.027527E1,8.767857E1,3.5590088E1,2.0479175E2,4.4044792E1,6.2741516E1,4.137825E1,7.524783E1,2.2789307E1,2.816262E1,1.708728E1,5.994535E1,6.764821E1,6.2825027E1,1.7200806E1,6.883057E1,1.7058289E1,5.0539337E1,9.978516E0,0E0,0E0,0E0,0E0,0E0,0E0,0E0,0E0,0E0,0E0,0E0,0E0,0E0,0E0,0E0,0E0,0E0,0E0,0E0,0E0,0E0,0E0,0E0,0E0,0E0,0E0,0E0,0E0,0E0,0E0,0E0,0E0,0E0,0E0,0E0,0E0,0E0,0E0,0E0,0E0,0E0,0E0,0E0,0E0,0E0,0E0,0E0,0E0,0E0,0E0,0E0,0E0,0E0,0E0,0E0,0E0,0E0,0E0,0E0,0E0,0E0,0E0,0E0,0E0],"parents":[2147483647,0,0,1,1,2,2,3,3,4,4,5,5,6,6,7,7,8,8,9,9,10,10,11,11,12,12,13,13,14,14,15,15,16,16,17,17,18,18,19,19,20,20,21,21,22,22,23,23,24,24,25,25,26,26,27,27,28,28,29,29,30,30,31,31,32,32,33,33,34,34,35,35,36,36,37,37,38,38,39,39,40,40,41,41,42,42,43,43,44,44,45,45,46,46,47,47,48,48,49,49,50,50,51,51,52,52,53,53,54,54,55,55,56,56,57,57,58,58,59,59,60,60,61,61,62,62],"right_children":[2,4,6,8,10,12,14,16,18,20,22,24,26,28,30,32,34,36,38,40,42,44,46,48,50,52,54,56,58,60,62,64,66,68,70,72,74,76,78,80,82,84,86,88,90,92,94,96,98,100,102,104,106,108,110,112,114,116,118,120,122,124,126,-1,-1,-1,-1,-1,-1,-1,-1,-1,-1,-1,-1,-1,-1,-1,-1,-1,-1,-1,-1,-1,-1,-1,-1,-1,-1,-1,-1,-1,-1,-1,-1,-1,-1,-1,-1,-1,-1,-1,-1,-1,-1,-1,-1,-1,-1,-1,-1,-1,-1,-1,-1,-1,-1,-1,-1,-1,-1,-1,-1,-1,-1,-1,-1],"split_conditions":[4.1527238E-1,6.0260355E-1,3.2425427E-1,6.14642E-1,5.7784605E-1,2.9029968E-1,2.0060863E-1,6.669962E-1,4.627806E-1,4.0058142E-1,1.6056934E-1,5.214299E-1,4.095077E-1,8.515068E-2,1.2202434E-1,1.1072781E0,6.838718E-1,6.300515E-1,3.7344548E-1,1.2827014E0,-1.679542E-1,7.913783E-1,5.456838E-1,5.042304E-1,3.1571066E-1,3.2764068E-1,8.4057845E-2,2.3187059E-1,1.6538388E-1,4.4417405E-4,-1.0002031E-1,7.9731077E-1,1.2827014E0,5.236075E-1,4.1468385E-1,7.34898E-1,6.339209E-1,3.1708288E-1,5.53522E-2,3.0861878E-1,1.615054E0,1.1415756E0,1.8850468E-1,1.0704105E-1,7.3412013E-1,4.90288E-1,-1.2697154E-1,9.090878E-1,2.5879186E-1,-1.9858497E-1,-1.3255702E-1,2.6715627E-1,5.042304E-1,3.502831E-1,1.5069872E-1,4.7321638E-1,3.6198357E-1,1.2149465E-1,-4.8981473E-1,6.6160315E-1,4.898661E-2,-2.2514848E-1,3.502116E-2,1.0907783E-1,2.2756912E-2,3.65215E-2,-9.2294805E-2,5.8429193E-2,-5.4886647E-2,-4.0710093E-3,-1.23833254E-1,7.969078E-2,-6.1862063E-2,2.157253E-3,-1.14726625E-1,2.2495745E-2,-1.091753E-1,-1.2472081E-2,-1.20656006E-1,9.319306E-2,-9.703384E-3,-1.5328283E-2,-1.3519691E-1,3.671911E-2,-1.3173883E-1,-5.710968E-2,-1.3332771E-1,8.190732E-2,-3.994031E-2,-3.0241252E-3,-1.1524904E-1,-4.867865E-3,-1.14525035E-1,-8.284108E-3,-1.3004217E-1,9.893474E-2,-3.339258E-2,6.3636325E-2,-9.113413E-2,6.2186148E-2,-3.7751738E-2,4.2059734E-3,-1.04497686E-1,9.404411E-2,-2.321086E-2,-4.340146E-2,-1.280335E-1,8.688288E-3,-1.1852119E-1,-9.617274E-2,-1.3232458E-1,8.29443E-2,-1.0765817E-1,3.317293E-2,-7.4883156E-2,2.3803672E-2,-9.058519E-2,-5.4626297E-2,-1.283148E-1,4.601027E-2,-7.942433E-2,-5.857549E-2,-1.2974557E-1,-5.1815342E-2,-1.2857006E-1,-1.11490786E-1,-1.3358787E-1],"split_indices":[320,331,315,327,332,327,309,312,324,325,327,323,325,324,313,335,313,333,325,337,323,336,333,332,317,334,326,308,325,325,303,324,337,324,311,323,334,333,326,324,339,337,324,323,335,328,329,316,331,329,312,324,332,333,329,332,318,312,311,316,324,325,312,0,0,0,0,0,0,0,0,0,0,0,0,0,0,0,0,0,0,0,0,0,0,0,0,0,0,0,0,0,0,0,0,0,0,0,0,0,0,0,0,0,0,0,0,0,0,0,0,0,0,0,0,0,0,0,0,0,0,0,0,0,0,0,0],"split_type":[0,0,0,0,0,0,0,0,0,0,0,0,0,0,0,0,0,0,0,0,0,0,0,0,0,0,0,0,0,0,0,0,0,0,0,0,0,0,0,0,0,0,0,0,0,0,0,0,0,0,0,0,0,0,0,0,0,0,0,0,0,0,0,0,0,0,0,0,0,0,0,0,0,0,0,0,0,0,0,0,0,0,0,0,0,0,0,0,0,0,0,0,0,0,0,0,0,0,0,0,0,0,0,0,0,0,0,0,0,0,0,0,0,0,0,0,0,0,0,0,0,0,0,0,0,0,0],"sum_hessian":[3.0756328E4,1.9722395E4,1.1033933E4,1.5600068E4,4.122327E3,3.502057E3,7.5318755E3,1.3786845E4,1.8132238E3,1.5049779E3,2.617349E3,1.970336E3,1.5317208E3,1.3546824E3,6.177193E3,1.2271859E4,1.5149852E3,1.1146865E3,6.9853723E2,1.0825784E3,4.2239957E2,5.844035E2,2.0329456E3,1.4476235E3,5.227125E2,4.268155E2,1.1049053E3,4.9557516E2,8.5910724E2,5.5367145E2,5.6235215E3,1.1476206E4,7.956531E2,9.757042E2,5.39281E2,8.5902655E2,2.5565994E2,2.1375626E2,4.84781E2,9.089628E2,1.7361551E2,1.0859332E2,3.1380624E2,2.5008731E2,3.3431616E2,2.967219E2,1.7362238E3,1.3133004E3,1.3432318E2,2.7411533E2,2.4859721E2,2.2144928E2,2.0536621E2,7.0731834E1,1.0341735E3,2.477684E2,2.4780676E2,1.9607518E2,6.6303204E2,1.8229099E2,3.713805E2,3.7920062E2,5.244321E3,1.0848855E4,6.273503E2,4.5211618E2,3.435369E2,8.456538E2,1.3005046E2,1.6878989E2,3.7049115E2,7.504566E2,1.0856992E2,8.8668625E1,1.6699133E2,1.4662424E2,6.7132E1,4.150892E1,4.432721E2,7.32994E2,1.7596881E2,9.191073E1,8.170478E1,8.954644E1,1.9046885E1,1.1477537E2,1.9903088E2,1.7903632E2,7.1051E1,5.7902657E1,2.764135E2,1.2799468E2,1.687272E2,2.4490858E1,1.7117329E3,1.184022E3,1.2927835E2,2.1178488E1,1.1314469E2,1.7821693E2,9.589841E1,4.2033066E1,2.0656413E2,9.52102E1,1.26239075E2,4.10807E1,1.642855E2,4.232071E1,2.8411125E1,1.7028012E2,8.638933E2,2.3084973E2,1.6918667E1,9.072037E1,1.570864E2,8.160155E1,1.1447363E2,3.5532494E1,6.274996E2,1.1184725E2,7.0443726E1,4.015537E1,3.312251E2,1.3516872E2,2.4403189E2,2.5150383E2,4.9928174E3],"tree_param":{"num_deleted":"0","num_feature":"500","num_nodes":"127","size_leaf_vector":"1"}},{"base_weights":[-2.4929417E-3,4.0073287E-1,-8.9255154E-1,5.6235325E-1,-8.719294E-1,-2.8363168E-1,-1.1628826E0,7.2401804E-1,-4.9477336E-1,-1.17521875E-1,-1.1322005E0,4.2141658E-1,-8.8051915E-1,-6.726712E-1,-1.2408475E0,8.907805E-1,-8.759362E-3,1.3311607E-1,-1.0202194E0,5.331084E-1,-8.5548437E-1,-5.269191E-1,-1.2513354E0,5.5846685E-1,-7.786036E-1,-3.9892936E-1,-1.1838912E0,-7.774636E-2,-1.1392556E0,-7.9116887E-1,-1.2670977E0,9.529105E-1,-2.9872158E-1,3.6853683E-1,-6.946912E-1,3.4313932E-1,-9.279884E-1,-2.6323003E-1,-1.2331462E0,8.387002E-1,-3.0141544E-1,1.7478536E-1,-1.0827031E0,2.6490176E-1,-1.0197661E0,-6.062162E-1,-1.2895606E0,8.9284325E-1,-9.8541684E-2,-3.7014198E-2,-1.1033307E0,1.4022371E-1,-9.7181046E-1,-6.0283333E-1,-1.2497606E0,4.3617922E-1,-6.5960515E-1,-5.34017E-1,-1.226443E0,-8.875166E-2,-1.1737751E0,-7.41104E-1,-1.277119E0,1.0367312E-1,2.7706025E-2,3.7629113E-2,-9.706398E-2,6.954541E-2,-6.742123E-2,-1.4720944E-2,-1.0061647E-1,7.223746E-2,-2.5342539E-2,6.9628883E-4,-1.17512405E-1,2.6128938E-2,-8.302092E-2,-3.4416717E-2,-1.3073654E-1,9.7294144E-2,-3.92449E-2,3.7696354E-2,-8.1930466E-2,7.491863E-2,-8.196468E-2,-4.415862E-2,-1.28273E-1,5.477021E-2,-1.03962615E-1,2.3688836E-2,-1.1754874E-1,2.8475598E-2,-1.117393E-1,-6.732624E-2,-1.3135803E-1,1.00693814E-1,4.537544E-3,5.7736497E-2,-5.205502E-2,7.080166E-2,-1.0587021E-1,-1.6206255E-2,-1.2546621E-1,3.6771156E-2,-1.308013E-1,-2.0423602E-2,-1.15786865E-1,2.685817E-3,-1.07996345E-1,-7.0804715E-2,-1.2815109E-1,8.364634E-2,-5.658571E-3,-9.788003E-3,-1.0731267E-1,1.6667722E-2,-1.1348859E-1,-6.2159307E-2,-1.2888695E-1,3.35706E-2,-8.723959E-2,-1.7397745E-2,-1.2575337E-1,5.235052E-2,-1.0707646E-1,-9.2367046E-2,-1.2880747E-1],"categories":[],"categories_nodes":[],"categories_segments":[],"categories_sizes":[],"default_left":[0,0,0,0,0,0,0,0,0,0,0,0,0,0,0,0,0,0,0,0,0,0,0,0,0,0,0,0,0,0,0,0,0,0,0,0,0,0,0,0,0,0,0,0,0,0,0,0,0,0,0,0,0,0,0,0,0,0,0,0,0,0,0,0,0,0,0,0,0,0,0,0,0,0,0,0,0,0,0,0,0,0,0,0,0,0,0,0,0,0,0,0,0,0,0,0,0,0,0,0,0,0,0,0,0,0,0,0,0,0,0,0,0,0,0,0,0,0,0,0,0,0,0,0,0,0,0],"id":8,"left_children":[1,3,5,7,9,11,13,15,17,19,21,23,25,27,29,31,33,35,37,39,41,43,45,47,49,51,53,55,57,59,61,63,65,67,69,71,73,75,77,79,81,83,85,87,89,91,93,95,97,99,101,103,105,107,109,111,113,115,117,119,121,123,125,-1,-1,-1,-1,-1,-1,-1,-1,-1,-1,-1,-1,-1,-1,-1,-1,-1,-1,-1,-1,-1,-1,-1,-1,-1,-1,-1,-1,-1,-1,-1,-1,-1,-1,-1,-1,-1,-1,-1,-1,-1,-1,-1,-1,-1,-1,-1,-1,-1,-1,-1,-1,-1,-1,-1,-1,-1,-1,-1,-1,-1,-1,-1,-1],"loss_changes":[1.0618793E4,4.188833E3,1.5181831E3,3.0882944E3,4.5047632E2,1.1945222E3,2.4332227E2,1.915167E3,7.9105286E2,2.8363226E2,1.2237109E2,2.1449956E2,2.2408215E2,2.438479E2,6.40459E1,9.438086E2,7.524399E2,2.4391393E2,2.1005591E2,8.034325E1,6.4969955E1,1.10442345E2,3.4354248E1,2.568519E2,3.2187813E1,1.840752E2,3.531848E1,1.1611571E2,2.5330933E1,8.229468E1,2.6489258E1,6.870762E2,2.8814545E2,6.398858E2,1.7578723E2,2.0678116E2,4.180034E1,8.580888E1,6.674451E1,3.841707E1,3.0140766E1,2.9667381E1,2.8526611E1,4.0818756E1,3.4370056E1,3.747791E1,1.9014893E1,7.4857666E1,1.1299943E2,3.2560253E1,1.3049767E1,1.0184326E2,4.101596E1,2.9440216E1,1.3635986E1,4.0735264E1,4.2185516E1,2.7041256E1,1.5422546E1,3.6614403E1,1.6395905E1,4.21225E1,1.8583008E1,0E0,0E0,0E0,0E0,0E0,0E0,0E0,0E0,0E0,0E0,0E0,0E0,0E0,0E0,0E0,0E0,0E0,0E0,0E0,0E0,0E0,0E0,0E0,0E0,0E0,0E0,0E0,0E0,0E0,0E0,0E0,0E0,0E0,0E0,0E0,0E0,0E0,0E0,0E0,0E0,0E0,0E0,0E0,0E0,0E0,0E0,0E0,0E0,0E0,0E0,0E0,0E0,0E0,0E0,0E0,0E0,0E0,0E0,0E0,0E0,0E0,0E0,0E0,0E0],"parents":[2147483647,0,0,1,1,2,2,3,3,4,4,5,5,6,6,7,7,8,8,9,9,10,10,11,11,12,12,13,13,14,14,15,15,16,16,17,17,18,18,19,19,20,20,21,21,22,22,23,23,24,24,25,25,26,26,27,27,28,28,29,29,30,30,31,31,32,32,33,33,34,34,35,35,36,36,37,37,38,38,39,39,40,40,41,41,42,42,43,43,44,44,45,45,46,46,47,47,48,48,49,49,50,50,51,51,52,52,53,53,54,54,55,55,56,56,57,57,58,58,59,59,60,60,61,61,62,62],"right_children":[2,4,6,8,10,12,14,16,18,20,22,24,26,28,30,32,34,36,38,40,42,44,46,48,50,52,54,56,58,60,62,64,66,68,70,72,74,76,78,80,82,84,86,88,90,92,94,96,98,100,102,104,106,108,110,112,114,116,118,120,122,124,126,-1,-1,-1,-1,-1,-1,-1,-1,-1,-1,-1,-1,-1,-1,-1,-1,-1,-1,-1,-1,-1,-1,-1,-1,-1,-1,-1,-1,-1,-1,-1,-1,-1,-1,-1,-1,-1,-1,-1,-1,-1,-1,-1,-1,-1,-1,-1,-1,-1,-1,-1,-1,-1,-1,-1,-1,-1,-1,-1,-1,-1,-1,-1,-1],"split_conditions":[5.175403E-1,8.3231974E-1,2.6426005E-1,7.143257E-1,3.237129E-1,2.5294805E-1,4.3045472E-2,4.8593688E-1,6.2258154E-1,9.332316E-1,5.889851E-1,5.9590733E-1,4.201645E-1,1.1927232E-1,-1.8324423E-1,1.7353013E0,4.702495E-1,3.1319696E-1,3.7784442E-1,4.90288E-1,6.339209E-1,2.2008243E-1,-2.8668967E-1,3.1623262E-1,7.165832E-1,5.46219E-1,-4.7599316E-1,3.6020756E-1,-3.2182798E-1,9.1272205E-2,-3.755788E-1,6.1037946E-1,1.3277092E0,8.7919223E-1,4.148889E-2,4.8453963E-1,1.3589148E-1,4.671264E-1,-2.1339519E-2,1.4510131E0,-3.9321855E-1,1.3042461E0,-1.7245486E-1,7.358973E-1,-1.821515E-1,9.332316E-1,4.2475304E-1,8.4823895E-1,2.3718362E-1,3.5478795E-1,-2.8668967E-1,9.072145E-1,-3.1649667E-1,5.886674E-1,-5.6469685E-1,1.2863597E-1,4.873847E-1,3.5990853E-2,-2.0623913E-1,7.0163774E-1,-1.4114036E-2,-2.7435258E-1,-4.262833E-2,1.0367312E-1,2.7706025E-2,3.7629113E-2,-9.706398E-2,6.954541E-2,-6.742123E-2,-1.4720944E-2,-1.0061647E-1,7.223746E-2,-2.5342539E-2,6.9628883E-4,-1.17512405E-1,2.6128938E-2,-8.302092E-2,-3.4416717E-2,-1.3073654E-1,9.7294144E-2,-3.92449E-2,3.7696354E-2,-8.1930466E-2,7.491863E-2,-8.196468E-2,-4.415862E-2,-1.28273E-1,5.477021E-2,-1.03962615E-1,2.3688836E-2,-1.1754874E-1,2.8475598E-2,-1.117393E-1,-6.732624E-2,-1.3135803E-1,1.00693814E-1,4.537544E-3,5.7736497E-2,-5.205502E-2,7.080166E-2,-1.0587021E-1,-1.6206255E-2,-1.2546621E-1,3.6771156E-2,-1.308013E-1,-2.0423602E-2,-1.15786865E-1,2.685817E-3,-1.07996345E-1,-7.0804715E-2,-1.2815109E-1,8.364634E-2,-5.658571E-3,-9.788003E-3,-1.0731267E-1,1.6667722E-2,-1.1348859E-1,-6.2159307E-2,-1.2888695E-1,3.35706E-2,-8.723959E-2,-1.7397745E-2,-1.2575337E-1,5.235052E-2,-1.0707646E-1,-9.2367046E-2,-1.2880747E-1],"split_indices":[322,332,317,314,329,327,310,329,315,336,334,333,329,327,311,339,326,328,311,328,334,326,326,316,336,325,315,316,316,326,315,319,337,335,323,312,325,319,319,339,317,337,326,328,325,336,333,323,323,326,326,336,312,328,316,325,319,333,328,319,325,327,319,0,0,0,0,0,0,0,0,0,0,0,0,0,0,0,0,0,0,0,0,0,0,0,0,0,0,0,0,0,0,0,0,0,0,0,0,0,0,0,0,0,0,0,0,0,0,0,0,0,0,0,0,0,0,0,0,0,0,0,0,0,0,0,0],"split_type":[0,0,0,0,0,0,0,0,0,0,0,0,0,0,0,0,0,0,0,0,0,0,0,0,0,0,0,0,0,0,0,0,0,0,0,0,0,0,0,0,0,0,0,0,0,0,0,0,0,0,0,0,0,0,0,0,0,0,0,0,0,0,0,0,0,0,0,0,0,0,0,0,0,0,0,0,0,0,0,0,0,0,0,0,0,0,0,0,0,0,0,0,0,0,0,0,0,0,0,0,0,0,0,0,0,0,0,0,0,0,0,0,0,0,0,0,0,0,0,0,0,0,0,0,0,0,0],"sum_hessian":[2.95855E4,2.0361582E4,9.223917E3,1.8067658E4,2.2939248E3,2.836579E3,6.3873374E3,1.5671373E4,2.3962847E3,5.887775E2,1.7051472E3,1.3005973E3,1.5359819E3,8.7778827E2,5.5095493E3,1.2765938E4,2.9054353E3,1.0920592E3,1.3042253E3,3.1305115E2,2.7572635E2,2.8131436E2,1.4238329E3,1.1677654E3,1.3283195E2,5.9452094E2,9.41461E2,3.8634305E2,4.9144522E2,3.0560135E2,5.2039478E3,1.2132437E4,6.335013E2,1.8747135E3,1.0307218E3,9.1218756E2,1.7987167E2,2.8680896E2,1.01741644E3,2.2913858E2,8.391256E1,4.9863396E1,2.2586296E2,1.0810022E2,1.7321413E2,8.059003E1,1.3432429E3,7.7366113E2,3.941042E2,4.0790775E1,9.204117E1,3.0666544E2,2.8785547E2,9.689226E1,8.445687E2,2.0528015E2,1.810629E2,6.277786E1,4.286674E2,1.08197044E2,1.9740431E2,9.869484E1,5.105253E3,1.079329E4,1.3391466E3,3.1624243E2,3.1725888E2,1.4275032E3,4.4721027E2,3.7429324E2,6.564285E2,5.575457E2,3.5464188E2,3.780845E1,1.4206323E2,1.4926303E2,1.3754591E2,7.883139E1,9.385851E2,2.0679945E2,2.2339134E1,3.6445286E1,4.7467274E1,3.1763103E1,1.810029E1,5.447373E1,1.7138924E2,8.931774E1,1.8782475E1,1.9040234E1,1.5417389E2,2.9541922E1,5.1048103E1,5.147674E1,1.2917661E3,6.81696E2,9.196517E1,1.5134135E2,2.4276285E2,2.3766724E1,1.7024054E1,1.3035068E1,7.90061E1,2.6567892E2,4.0986523E1,5.6571205E1,2.3128427E2,4.217526E1,5.4717E1,4.805019E1,7.9651855E2,1.12884224E2,9.239592E1,7.729819E1,1.037647E2,2.9315098E1,3.346276E1,4.1128716E1,3.8753867E2,7.05536E1,3.764345E1,1.5497163E1,1.8190715E2,2.028637E1,7.840848E1,1.5605104E2,4.949202E3],"tree_param":{"num_deleted":"0","num_feature":"500","num_nodes":"127","size_leaf_vector":"1"}},{"base_weights":[-4.9823844E-3,4.4754454E-1,-7.477537E-1,6.470715E-1,-6.2105757E-1,-1.8371336E-1,-1.08745E0,7.5327337E-1,-3.5615158E-1,6.1212562E-2,-9.842733E-1,3.205715E-1,-8.8732666E-1,-5.809923E-1,-1.1949543E0,8.8639814E-1,-2.641231E-1,2.8255174E-1,-8.8689363E-1,4.8938668E-1,-5.1906925E-1,-2.5220576E-1,-1.1288323E0,5.5100894E-1,-4.9659657E-1,-2.5521272E-1,-1.0947878E0,1.04338884E-1,-1.0072972E0,-6.678935E-1,-1.2272677E0,9.507976E-1,-7.851227E-2,2.936473E-1,-9.282463E-1,6.151392E-1,-7.2659665E-1,-1.17501564E-1,-1.1151308E0,7.764884E-1,-5.363466E-1,2.0032577E-2,-9.784146E-1,3.6261117E-1,-1.012561E0,-4.2280167E-1,-1.2026252E0,7.288348E-1,-8.207474E-1,1.0692605E-1,-9.119439E-1,1.5232751E-1,-1.1518459E0,-6.3963497E-1,-1.1973933E0,5.827133E-1,-5.31244E-1,-4.9696586E-1,-1.1712716E0,1.5487275E-3,-1.1045982E0,-9.275046E-1,-1.2539215E0,9.809089E-2,-2.779356E-2,4.3755066E-2,-6.120306E-2,6.143601E-2,-3.1754915E-2,-3.1073725E-2,-1.2484973E-1,8.707773E-2,-3.5286944E-2,2.8659765E-2,-1.1082969E-1,3.3410728E-2,-1.1686536E-1,-5.5239946E-2,-1.277958E-1,9.6028484E-2,8.381591E-3,2.7406251E-2,-9.284187E-2,4.7114246E-2,-1.063553E-1,-3.282517E-2,-1.2164754E-1,5.9182864E-2,-8.420763E-2,-4.0079217E-2,-1.2514657E-1,7.8083985E-2,-7.645639E-2,-7.107088E-2,-1.2597778E-1,9.206576E-2,5.642493E-3,-1.8744763E-2,-1.24502264E-1,4.712748E-2,-8.042005E-2,-1.328185E-3,-1.0517843E-1,4.428072E-2,-8.386358E-2,4.2809803E-2,-1.1966541E-1,1.1815435E-2,-1.1976989E-1,-4.4601973E-2,-1.22379996E-1,8.0724314E-2,-4.2260077E-2,1.0376363E-2,-9.287088E-2,3.1038636E-2,-9.605127E-2,-6.4812E-2,-1.2563561E-1,3.686391E-2,-8.8661425E-2,-4.438699E-2,-1.1924835E-1,-3.2508936E-2,-1.15650654E-1,-7.516938E-2,-1.2598892E-1],"categories":[],"categories_nodes":[],"categories_segments":[],"categories_sizes":[],"default_left":[0,0,0,0,0,0,0,0,0,0,0,0,0,0,0,0,0,0,0,0,0,0,0,0,0,0,0,0,0,0,0,0,0,0,0,0,0,0,0,0,0,0,0,0,0,0,0,0,0,0,0,0,0,0,0,0,0,0,0,0,0,0,0,0,0,0,0,0,0,0,0,0,0,0,0,0,0,0,0,0,0,0,0,0,0,0,0,0,0,0,0,0,0,0,0,0,0,0,0,0,0,0,0,0,0,0,0,0,0,0,0,0,0,0,0,0,0,0,0,0,0,0,0,0,0,0,0],"id":9,"left_children":[1,3,5,7,9,11,13,15,17,19,21,23,25,27,29,31,33,35,37,39,41,43,45,47,49,51,53,55,57,59,61,63,65,67,69,71,73,75,77,79,81,83,85,87,89,91,93,95,97,99,101,103,105,107,109,111,113,115,117,119,121,123,125,-1,-1,-1,-1,-1,-1,-1,-1,-1,-1,-1,-1,-1,-1,-1,-1,-1,-1,-1,-1,-1,-1,-1,-1,-1,-1,-1,-1,-1,-1,-1,-1,-1,-1,-1,-1,-1,-1,-1,-1,-1,-1,-1,-1,-1,-1,-1,-1,-1,-1,-1,-1,-1,-1,-1,-1,-1,-1,-1,-1,-1,-1,-1,-1],"loss_changes":[9.595828E3,3.7829067E3,2.070666E3,1.5930586E3,6.918921E2,1.4421958E3,3.6656738E2,1.8312319E3,4.855969E2,2.4147038E2,1.9252441E2,4.461675E2,2.2224329E2,3.4574664E2,9.3930176E1,7.429424E2,5.799961E2,2.1879037E2,1.3722766E2,1.6508087E2,1.0221513E2,1.4141998E2,7.874597E1,4.5127362E2,1.3079453E2,1.538682E2,5.888318E1,1.3852916E2,6.0459656E1,9.459747E1,4.0709473E1,4.149131E2,2.064573E2,1.670799E2,1.4093695E2,1.21521164E2,6.2858826E1,8.58719E1,5.455835E1,5.5589935E1,3.9295444E1,9.378728E1,3.409256E1,4.6769875E1,1.9253021E1,6.0445457E1,3.7809814E1,2.1097083E2,5.6860794E1,7.123463E1,3.8811035E1,8.386341E1,9.825256E0,1.0041388E2,2.0111694E1,5.899636E1,4.950111E1,6.733398E1,2.3726685E1,4.230208E1,1.0842072E1,5.9189667E1,1.3469238E1,0E0,0E0,0E0,0E0,0E0,0E0,0E0,0E0,0E0,0E0,0E0,0E0,0E0,0E0,0E0,0E0,0E0,0E0,0E0,0E0,0E0,0E0,0E0,0E0,0E0,0E0,0E0,0E0,0E0,0E0,0E0,0E0,0E0,0E0,0E0,0E0,0E0,0E0,0E0,0E0,0E0,0E0,0E0,0E0,0E0,0E0,0E0,0E0,0E0,0E0,0E0,0E0,0E0,0E0,0E0,0E0,0E0,0E0,0E0,0E0,0E0,0E0,0E0,0E0],"parents":[2147483647,0,0,1,1,2,2,3,3,4,4,5,5,6,6,7,7,8,8,9,9,10,10,11,11,12,12,13,13,14,14,15,15,16,16,17,17,18,18,19,19,20,20,21,21,22,22,23,23,24,24,25,25,26,26,27,27,28,28,29,29,30,30,31,31,32,32,33,33,34,34,35,35,36,36,37,37,38,38,39,39,40,40,41,41,42,42,43,43,44,44,45,45,46,46,47,47,48,48,49,49,50,50,51,51,52,52,53,53,54,54,55,55,56,56,57,57,58,58,59,59,60,60,61,61,62,62],"right_children":[2,4,6,8,10,12,14,16,18,20,22,24,26,28,30,32,34,36,38,40,42,44,46,48,50,52,54,56,58,60,62,64,66,68,70,72,74,76,78,80,82,84,86,88,90,92,94,96,98,100,102,104,106,108,110,112,114,116,118,120,122,124,126,-1,-1,-1,-1,-1,-1,-1,-1,-1,-1,-1,-1,-1,-1,-1,-1,-1,-1,-1,-1,-1,-1,-1,-1,-1,-1,-1,-1,-1,-1,-1,-1,-1,-1,-1,-1,-1,-1,-1,-1,-1,-1,-1,-1,-1,-1,-1,-1,-1,-1,-1,-1,-1,-1,-1,-1,-1,-1,-1,-1,-1,-1,-1,-1],"split_conditions":[3.49238E-1,6.448789E-1,2.9836205E-1,1.0398974E0,4.9954462E-1,3.2137102E-1,1.5142792E-1,7.2983533E-1,8.1929755E-1,-1.9624107E-1,-1.3918909E-2,7.1992666E-1,3.2094923E-1,-8.483182E-2,-1.8991001E-1,7.731979E-1,5.7892996E-1,1.5404077E0,5.8722407E-1,9.167109E-1,2.1784888E-1,8.4406793E-1,-5.105985E-1,6.130523E-1,3.5047156E-1,5.9812367E-1,1.2936397E-1,4.862161E-1,-1.1800532E-1,-1.0686438E-1,-1.4824642E-1,1.7681873E0,1.9766052E-1,4.873847E-1,4.2254618E-1,6.415161E-1,3.2299882E-1,1.5749204E0,1.0030229E0,5.711935E-1,1.5069872E-1,9.859036E-1,-3.682772E-1,5.792534E-1,8.5877895E-1,4.1629967E-1,3.6824355E-1,6.2185913E-1,8.6706394E-1,7.4534E-1,7.2355815E-3,7.948255E-1,2.1103615E-1,2.5578296E-1,-6.6990185E-1,7.764336E-1,2.8018853E-1,1.616378E-1,-3.5634926E-1,8.136561E-1,-6.6858204E-3,1.2162294E-1,-7.1855843E-1,9.809089E-2,-2.779356E-2,4.3755066E-2,-6.120306E-2,6.143601E-2,-3.1754915E-2,-3.1073725E-2,-1.2484973E-1,8.707773E-2,-3.5286944E-2,2.8659765E-2,-1.1082969E-1,3.3410728E-2,-1.1686536E-1,-5.5239946E-2,-1.277958E-1,9.6028484E-2,8.381591E-3,2.7406251E-2,-9.284187E-2,4.7114246E-2,-1.063553E-1,-3.282517E-2,-1.2164754E-1,5.9182864E-2,-8.420763E-2,-4.0079217E-2,-1.2514657E-1,7.8083985E-2,-7.645639E-2,-7.107088E-2,-1.2597778E-1,9.206576E-2,5.642493E-3,-1.8744763E-2,-1.24502264E-1,4.712748E-2,-8.042005E-2,-1.328185E-3,-1.0517843E-1,4.428072E-2,-8.386358E-2,4.2809803E-2,-1.1966541E-1,1.1815435E-2,-1.1976989E-1,-4.4601973E-2,-1.22379996E-1,8.0724314E-2,-4.2260077E-2,1.0376363E-2,-9.287088E-2,3.1038636E-2,-9.605127E-2,-6.4812E-2,-1.2563561E-1,3.686391E-2,-8.8661425E-2,-4.438699E-2,-1.1924835E-1,-3.2508936E-2,-1.15650654E-1,-7.516938E-2,-1.2598892E-1],"split_indices":[321,330,311,335,331,327,312,315,334,317,326,320,326,327,310,327,310,338,333,335,325,335,322,333,317,334,323,318,330,327,301,338,323,319,307,331,332,338,337,327,329,337,312,325,337,333,332,322,335,322,322,325,333,333,315,322,322,318,317,320,326,323,300,0,0,0,0,0,0,0,0,0,0,0,0,0,0,0,0,0,0,0,0,0,0,0,0,0,0,0,0,0,0,0,0,0,0,0,0,0,0,0,0,0,0,0,0,0,0,0,0,0,0,0,0,0,0,0,0,0,0,0,0,0,0,0,0],"split_type":[0,0,0,0,0,0,0,0,0,0,0,0,0,0,0,0,0,0,0,0,0,0,0,0,0,0,0,0,0,0,0,0,0,0,0,0,0,0,0,0,0,0,0,0,0,0,0,0,0,0,0,0,0,0,0,0,0,0,0,0,0,0,0,0,0,0,0,0,0,0,0,0,0,0,0,0,0,0,0,0,0,0,0,0,0,0,0,0,0,0,0,0,0,0,0,0,0,0,0,0,0,0,0,0,0,0,0,0,0,0,0,0,0,0,0,0,0,0,0,0,0,0,0,0,0,0,0],"sum_hessian":[2.8546482E4,1.7739342E4,1.0807141E4,1.4948572E4,2.790769E3,4.0627651E3,6.744376E3,1.3517815E4,1.4307561E3,9.6983936E2,1.8209297E3,2.3669202E3,1.6958448E3,1.1820559E3,5.56232E3,1.1953807E4,1.5640087E3,6.495478E2,7.812084E2,5.5815137E2,4.1168802E2,3.0073068E2,1.520199E3,1.8465326E3,5.203876E2,4.195988E2,1.2762461E3,4.5360004E2,7.2845593E2,3.225719E2,5.239748E3,1.1205923E4,7.47884E2,8.5037274E2,7.13636E2,4.8883252E2,1.6071529E2,1.7907104E2,6.021373E2,4.3628E2,1.2187135E2,1.8984106E2,2.2184695E2,1.6656815E2,1.3416254E2,1.4448952E2,1.3757095E3,1.6350444E3,2.1148814E2,2.1244127E2,3.0794632E2,2.8904938E2,1.3054942E2,2.3610942E2,1.0401366E3,2.588549E2,1.9474516E2,1.7812263E2,5.503333E2,1.27744156E2,1.9482774E2,4.3077823E2,4.8089697E3,1.0938077E4,2.6784628E2,3.8025238E2,3.676316E2,5.57717E2,2.9265573E2,2.4438403E2,4.6925195E2,3.8678757E2,1.0204496E2,4.4046455E1,1.1666883E2,1.25733864E2,5.3337173E1,1.3611523E2,4.6602206E2,3.4448633E2,9.179368E1,3.9834602E1,8.203675E1,1.3443806E2,5.5403004E1,6.0096775E1,1.6175017E2,1.4036873E2,2.6199415E1,3.8430447E1,9.5732086E1,3.1669386E1,1.1282014E2,1.4459633E2,1.2311132E3,1.271847E3,3.631974E2,8.542271E1,1.26065445E2,1.5210074E2,6.0340538E1,4.161419E1,2.6633212E2,2.2395494E2,6.509444E1,3.36445E0,1.27184975E2,1.0047022E2,1.3563919E2,3.5921494E1,1.00421515E3,2.1175739E2,4.7097492E1,7.525436E1,1.194908E2,6.5088844E1,1.130338E2,7.81901E1,4.721432E2,9.080012E1,3.6944035E1,2.3582607E1,1.7124515E2,1.1931812E2,3.114601E2,5.796095E1,4.751009E3],"tree_param":{"num_deleted":"0","num_feature":"500","num_nodes":"127","size_leaf_vector":"1"}},{"base_weights":[-3.9941496E-3,3.8435927E-1,-7.707461E-1,5.651462E-1,-5.005579E-1,-1.4984246E-1,-1.0505631E0,7.761927E-1,-3.84498E-1,-7.958322E-2,-1.0941168E0,3.2515672E-1,-8.924469E-1,-5.2164835E-1,-1.1626301E0,8.3393186E-1,-2.4793132E-1,1.823923E-1,-8.697218E-1,2.0082909E-1,-9.496839E-1,-4.2311284E-1,-1.2254317E0,6.15545E-1,-3.816554E-1,-3.092161E-1,-1.100681E0,5.6831457E-2,-1.0004331E0,-7.51081E-1,-1.2046014E0,9.122585E-1,2.9449712E-2,2.671367E-1,-7.5927186E-1,5.563436E-1,-5.196024E-1,-1.3756938E-1,-1.0600058E0,5.976998E-1,-4.197707E-1,-3.2246163E-1,-1.1710687E0,-4.3865155E-2,-1.2290254E0,-2.9011595E-1,-1.2566333E0,8.086712E-1,3.719836E-2,2.4110958E-1,-7.6947755E-1,1.544069E-1,-1.1143998E0,-6.97305E-1,-1.214855E0,4.685895E-1,-6.8174994E-1,-1.272794E-1,-1.1040782E0,-1.7257859E-1,-1.0968944E0,-7.411654E-1,-1.2214642E0,9.716654E-2,7.244625E-3,5.0197154E-2,-5.4305144E-2,7.230566E-2,-3.214218E-2,-5.491378E-3,-1.0244172E-1,7.504963E-2,-3.304126E-2,1.0931033E-2,-9.22031E-2,3.8710177E-2,-8.210513E-2,-5.121834E-2,-1.20166E-1,7.653271E-2,4.427994E-5,2.3609482E-2,-8.594193E-2,1.5881903E-2,-9.504568E-2,-3.6606137E-2,-1.24366485E-1,7.799761E-2,-5.180223E-2,1.2445741E-2,-1.2847702E-1,2.1716265E-2,-1.04561925E-1,-8.3363235E-2,-1.2989084E-1,8.997531E-2,-4.9313482E-2,4.3400925E-2,-4.7083903E-2,7.415491E-2,-2.4842927E-2,-2.4367865E-2,-1.1127838E-1,9.187981E-2,-2.0704878E-2,-1.2416221E-2,-1.21812515E-1,-1.4669248E-3,-1.0706704E-1,-6.602064E-2,-1.2464448E-1,6.993162E-2,-3.0753067E-2,3.7946034E-2,-9.354944E-2,4.1631676E-2,-1.1343286E-1,-7.893368E-2,-1.2763818E-1,2.5916403E-2,-1.2265219E-1,-3.4303885E-2,-1.1849695E-1,-8.058532E-3,-1.15754776E-1,-6.326793E-2,-1.2287891E-1],"categories":[],"categories_nodes":[],"categories_segments":[],"categories_sizes":[],"default_left":[0,0,0,0,0,0,0,0,0,0,0,0,0,0,0,0,0,0,0,0,0,0,0,0,0,0,0,0,0,0,0,0,0,0,0,0,0,0,0,0,0,0,0,0,0,0,0,0,0,0,0,0,0,0,0,0,0,0,0,0,0,0,0,0,0,0,0,0,0,0,0,0,0,0,0,0,0,0,0,0,0,0,0,0,0,0,0,0,0,0,0,0,0,0,0,0,0,0,0,0,0,0,0,0,0,0,0,0,0,0,0,0,0,0,0,0,0,0,0,0,0,0,0,0,0,0,0],"id":10,"left_children":[1,3,5,7,9,11,13,15,17,19,21,23,25,27,29,31,33,35,37,39,41,43,45,47,49,51,53,55,57,59,61,63,65,67,69,71,73,75,77,79,81,83,85,87,89,91,93,95,97,99,101,103,105,107,109,111,113,115,117,119,121,123,125,-1,-1,-1,-1,-1,-1,-1,-1,-1,-1,-1,-1,-1,-1,-1,-1,-1,-1,-1,-1,-1,-1,-1,-1,-1,-1,-1,-1,-1,-1,-1,-1,-1,-1,-1,-1,-1,-1,-1,-1,-1,-1,-1,-1,-1,-1,-1,-1,-1,-1,-1,-1,-1,-1,-1,-1,-1,-1,-1,-1,-1,-1,-1,-1],"loss_changes":[8.1861567E3,2.919734E3,1.6056807E3,3.0373345E3,7.7358356E2,1.0135344E3,3.7704395E2,7.3335156E2,7.582455E2,4.424315E2,1.12679565E2,3.599677E2,1.3578723E2,3.0908167E2,8.989258E1,7.3954736E2,1.7468271E2,3.3416757E2,2.0675793E2,3.3807635E2,6.098993E1,6.4678314E1,3.0975464E1,1.3876743E2,1.23602646E2,1.1077776E2,3.7174866E1,1.5426764E2,5.511133E1,9.766202E1,3.63584E1,5.3354004E2,2.8225848E2,8.899112E1,6.2078156E1,1.4319766E2,1.1210929E2,1.1059127E2,9.084741E1,8.379913E1,1.5464154E2,3.5415016E1,1.8612152E1,5.70674E1,5.2705383E0,1.4011954E1,1.7495972E1,1.108963E2,6.31279E1,4.8412224E1,5.6614044E1,5.238317E1,1.098143E1,4.7001556E1,1.0427551E1,5.8522568E1,4.92566E1,3.6554237E1,2.8582031E1,8.4126884E1,1.990683E1,4.6653984E1,1.905957E1,0E0,0E0,0E0,0E0,0E0,0E0,0E0,0E0,0E0,0E0,0E0,0E0,0E0,0E0,0E0,0E0,0E0,0E0,0E0,0E0,0E0,0E0,0E0,0E0,0E0,0E0,0E0,0E0,0E0,0E0,0E0,0E0,0E0,0E0,0E0,0E0,0E0,0E0,0E0,0E0,0E0,0E0,0E0,0E0,0E0,0E0,0E0,0E0,0E0,0E0,0E0,0E0,0E0,0E0,0E0,0E0,0E0,0E0,0E0,0E0,0E0,0E0,0E0,0E0],"parents":[2147483647,0,0,1,1,2,2,3,3,4,4,5,5,6,6,7,7,8,8,9,9,10,10,11,11,12,12,13,13,14,14,15,15,16,16,17,17,18,18,19,19,20,20,21,21,22,22,23,23,24,24,25,25,26,26,27,27,28,28,29,29,30,30,31,31,32,32,33,33,34,34,35,35,36,36,37,37,38,38,39,39,40,40,41,41,42,42,43,43,44,44,45,45,46,46,47,47,48,48,49,49,50,50,51,51,52,52,53,53,54,54,55,55,56,56,57,57,58,58,59,59,60,60,61,61,62,62],"right_children":[2,4,6,8,10,12,14,16,18,20,22,24,26,28,30,32,34,36,38,40,42,44,46,48,50,52,54,56,58,60,62,64,66,68,70,72,74,76,78,80,82,84,86,88,90,92,94,96,98,100,102,104,106,108,110,112,114,116,118,120,122,124,126,-1,-1,-1,-1,-1,-1,-1,-1,-1,-1,-1,-1,-1,-1,-1,-1,-1,-1,-1,-1,-1,-1,-1,-1,-1,-1,-1,-1,-1,-1,-1,-1,-1,-1,-1,-1,-1,-1,-1,-1,-1,-1,-1,-1,-1,-1,-1,-1,-1,-1,-1,-1,-1,-1,-1,-1,-1,-1,-1,-1,-1,-1,-1,-1],"split_conditions":[4.285814E-1,6.035969E-1,1.01262935E-1,7.4315614E-1,6.7836845E-1,3.4227028E-1,2.166083E-2,7.7723527E-1,8.08275E-1,3.9423442E-1,3.6866617E-1,6.2756854E-1,-1.2596135E-1,4.905164E-2,2.8332189E-2,7.310287E-1,1.8097897E-1,2.2778207E-1,-1.4305313E-1,4.4729516E-1,-2.8712866E-1,-1.107198E-1,-9.146178E-2,3.0723193E-1,3.7344548E-1,7.970188E-1,3.366743E-1,4.467194E-1,-3.456398E-2,4.3443683E-1,-4.0221533E-1,1.1855295E0,5.6167406E-1,5.042304E-1,-1.6901524E-1,1.3042461E0,7.891509E-3,1.112374E0,7.913783E-1,5.176472E-1,4.4413725E-1,7.531926E-1,1.843837E-1,2.7380472E-1,-7.6328015E-1,-4.6344137E-1,3.3391216E-1,7.970188E-1,1.8527591E-1,-7.423749E-3,1.380998E-1,2.526077E-1,-1.20999955E-1,2.9175588E-1,-3.0785578E-1,7.350288E-1,1.619866E-1,6.6512156E-1,3.9213082E-1,2.4692276E-1,5.685559E-2,-6.2502706E-3,-2.8242612E-1,9.716654E-2,7.244625E-3,5.0197154E-2,-5.4305144E-2,7.230566E-2,-3.214218E-2,-5.491378E-3,-1.0244172E-1,7.504963E-2,-3.304126E-2,1.0931033E-2,-9.22031E-2,3.8710177E-2,-8.210513E-2,-5.121834E-2,-1.20166E-1,7.653271E-2,4.427994E-5,2.3609482E-2,-8.594193E-2,1.5881903E-2,-9.504568E-2,-3.6606137E-2,-1.24366485E-1,7.799761E-2,-5.180223E-2,1.2445741E-2,-1.2847702E-1,2.1716265E-2,-1.04561925E-1,-8.3363235E-2,-1.2989084E-1,8.997531E-2,-4.9313482E-2,4.3400925E-2,-4.7083903E-2,7.415491E-2,-2.4842927E-2,-2.4367865E-2,-1.1127838E-1,9.187981E-2,-2.0704878E-2,-1.2416221E-2,-1.21812515E-1,-1.4669248E-3,-1.0706704E-1,-6.602064E-2,-1.2464448E-1,6.993162E-2,-3.0753067E-2,3.7946034E-2,-9.354944E-2,4.1631676E-2,-1.1343286E-1,-7.893368E-2,-1.2763818E-1,2.5916403E-2,-1.2265219E-1,-3.4303885E-2,-1.1849695E-1,-8.058532E-3,-1.15754776E-1,-6.326793E-2,-1.2287891E-1],"split_indices":[323,310,315,333,311,330,312,329,334,331,317,324,322,329,324,318,324,326,326,319,321,331,318,314,325,334,331,318,325,317,311,336,317,332,322,337,325,336,336,304,315,333,330,318,319,331,314,334,310,308,318,329,327,324,324,324,322,336,330,333,313,329,322,0,0,0,0,0,0,0,0,0,0,0,0,0,0,0,0,0,0,0,0,0,0,0,0,0,0,0,0,0,0,0,0,0,0,0,0,0,0,0,0,0,0,0,0,0,0,0,0,0,0,0,0,0,0,0,0,0,0,0,0,0,0,0,0],"split_type":[0,0,0,0,0,0,0,0,0,0,0,0,0,0,0,0,0,0,0,0,0,0,0,0,0,0,0,0,0,0,0,0,0,0,0,0,0,0,0,0,0,0,0,0,0,0,0,0,0,0,0,0,0,0,0,0,0,0,0,0,0,0,0,0,0,0,0,0,0,0,0,0,0,0,0,0,0,0,0,0,0,0,0,0,0,0,0,0,0,0,0,0,0,0,0,0,0,0,0,0,0,0,0,0,0,0,0,0,0,0,0,0,0,0,0,0,0,0,0,0,0,0,0,0,0,0,0],"sum_hessian":[2.7489479E4,1.824768E4,9.241798E3,1.5152428E4,3.0952522E3,2.8715247E3,6.3702734E3,1.2397437E4,2.754992E3,1.8115592E3,1.283693E3,1.7516575E3,1.1198673E3,1.1147449E3,5.2555283E3,1.173596E4,6.6147656E2,1.2708606E3,1.4841312E3,1.3706132E3,4.409461E2,2.1079205E2,1.0729009E3,1.2416602E3,5.0999725E2,2.952904E2,8.245769E2,5.0521393E2,6.0953094E2,4.8812503E2,4.7674033E3,1.0694572E4,1.0413872E3,3.297751E2,3.3170145E2,8.2930096E2,4.4155966E2,3.0650818E2,1.177623E3,8.360194E2,5.345937E2,1.15674965E2,3.2527112E2,1.4405624E2,6.673581E1,3.496833E1,1.0379325E3,9.305313E2,3.111289E2,1.9586134E2,3.141359E2,1.8790395E2,1.0738645E2,1.8347365E2,6.411033E2,3.2460992E2,1.80604E2,6.491186E1,5.4461914E2,1.8318259E2,3.0494244E2,1.6895673E2,4.598447E3,9.987889E3,7.0668353E2,5.7057684E2,4.708104E2,1.8569789E2,1.440772E2,9.104572E1,2.4065572E2,6.804681E2,1.4883287E2,1.7258043E2,2.6897922E2,1.7364453E2,1.3286365E2,2.4289323E2,9.347298E2,6.5258295E2,1.8343645E2,2.1472743E2,3.1986627E2,6.591011E1,4.976486E1,2.7406578E1,2.9786456E2,5.238796E1,9.166829E1,2.5911067E0,6.414471E1,2.1347336E1,1.3620995E1,9.618962E1,9.417429E2,8.6997186E2,6.0559452E1,1.7476868E2,1.3636021E2,9.6597786E1,9.926356E1,1.2476259E2,1.8937332E2,5.9831944E1,1.2807199E2,1.039028E1,9.699617E1,6.5237366E1,1.1823628E2,3.572637E1,6.053769E2,2.5029936E2,7.431057E1,3.4755222E1,1.4584879E2,4.253723E1,2.237462E1,1.9464624E2,3.4997287E2,1.304844E2,5.2698185E1,3.2412346E1,2.725301E2,6.5784615E1,1.0317211E2,5.7578743E1,4.5408677E3],"tree_param":{"num_deleted":"0","num_feature":"500","num_nodes":"127","size_leaf_vector":"1"}},{"base_weights":[-3.5692686E-3,4.015413E-1,-6.9096136E-1,5.848375E-1,-6.0152674E-1,-1.07218325E-1,-9.9192375E-1,7.33055E-1,-1.4916661E-1,2.0345101E-1,-9.0952724E-1,2.879277E-1,-8.321571E-1,-5.284674E-1,-1.1379695E0,9.1209704E-1,1.0338805E-1,2.2026016E-1,-8.0760425E-1,6.222632E-1,-6.9245255E-1,-1.7977795E-1,-1.0934305E0,5.248578E-1,-5.1053166E-1,-4.2110416E-1,-1.0911303E0,-7.083656E-2,-1.0149909E0,-7.2014433E-1,-1.1810884E0,9.604246E-1,6.72968E-2,4.463202E-1,-5.598124E-1,4.978198E-1,-6.51746E-1,-1.600838E-1,-1.0930531E0,9.5880574E-1,1.04110345E-1,2.9124847E-2,-1.1390849E0,4.424484E-1,-7.768043E-1,-5.6436914E-1,-1.2035885E0,6.863178E-1,-2.0832582E-1,8.4286585E-2,-8.9476717E-1,2.5949174E-1,-8.806064E-1,-6.4310515E-1,-1.1857022E0,3.3926287E-1,-6.579239E-1,-4.037346E-1,-1.1067863E0,8.585455E-2,-9.94624E-1,-7.2984886E-1,-1.195308E0,1.0568207E-1,6.5845296E-2,3.9169334E-2,-8.732236E-2,7.472018E-2,-1.1491978E-2,-1.4386462E-3,-9.577942E-2,6.3633315E-2,-7.4727766E-2,-1.5213813E-2,-1.0767609E-1,3.3949547E-2,-7.279172E-2,-4.48631E-2,-1.2271978E-1,1.04181305E-1,-6.2080366E-3,5.04315E-2,-5.3052604E-2,4.5001585E-2,-7.658535E-2,-1.6585497E-2,-1.273554E-1,6.947031E-2,-4.076816E-2,1.3384401E-2,-1.02319874E-1,1.3786234E-2,-1.0400646E-1,-7.864902E-2,-1.2597021E-1,7.8648016E-2,-6.8212114E-2,4.19745E-2,-5.824097E-2,5.5571437E-2,-5.3081013E-2,-1.918469E-2,-1.0487997E-1,5.774651E-2,-5.386382E-2,1.989393E-2,-1.0359035E-1,-9.52618E-3,-9.769481E-2,-7.518018E-2,-1.2189938E-1,5.3686377E-2,-7.627689E-2,-1.4344606E-2,-1.0382867E-1,2.9472426E-2,-8.889035E-2,-6.388732E-2,-1.1747439E-1,4.350743E-2,-6.885209E-2,-4.927928E-2,-1.13770224E-1,-1.1936854E-2,-9.9098E-2,-9.1704816E-2,-1.20831765E-1],"categories":[],"categories_nodes":[],"categories_segments":[],"categories_sizes":[],"default_left":[0,0,0,0,0,0,0,0,0,0,0,0,0,0,0,0,0,0,0,0,0,0,0,0,0,0,0,0,0,0,0,0,0,0,0,0,0,0,0,0,0,0,0,0,0,0,0,0,0,0,0,0,0,0,0,0,0,0,0,0,0,0,0,0,0,0,0,0,0,0,0,0,0,0,0,0,0,0,0,0,0,0,0,0,0,0,0,0,0,0,0,0,0,0,0,0,0,0,0,0,0,0,0,0,0,0,0,0,0,0,0,0,0,0,0,0,0,0,0,0,0,0,0,0,0,0,0],"id":11,"left_children":[1,3,5,7,9,11,13,15,17,19,21,23,25,27,29,31,33,35,37,39,41,43,45,47,49,51,53,55,57,59,61,63,65,67,69,71,73,75,77,79,81,83,85,87,89,91,93,95,97,99,101,103,105,107,109,111,113,115,117,119,121,123,125,-1,-1,-1,-1,-1,-1,-1,-1,-1,-1,-1,-1,-1,-1,-1,-1,-1,-1,-1,-1,-1,-1,-1,-1,-1,-1,-1,-1,-1,-1,-1,-1,-1,-1,-1,-1,-1,-1,-1,-1,-1,-1,-1,-1,-1,-1,-1,-1,-1,-1,-1,-1,-1,-1,-1,-1,-1,-1,-1,-1,-1,-1,-1,-1],"loss_changes":[7.363217E3,3.059183E3,1.7224531E3,1.5304824E3,6.376051E2,9.5602167E2,4.3727734E2,1.3193545E3,5.752429E2,2.6769104E2,2.4937402E2,4.0893796E2,1.248703E2,3.45478E2,8.7757324E1,3.7197412E2,5.8981476E2,3.6706076E2,1.569184E2,8.4633026E1,7.3312096E1,1.3984134E2,8.587488E1,1.9741031E2,1.13170334E2,1.4304979E2,2.9814331E1,1.9303244E2,4.17583E1,1.0243584E2,2.7723145E1,2.5020459E2,1.511106E2,2.8872412E2,1.9187451E2,1.9879837E2,7.7612564E1,7.43465E1,5.0427124E1,2.5017181E1,4.9147278E1,2.9757998E1,1.8172043E1,3.9851894E1,4.3217644E1,8.626739E1,2.7757935E1,1.8775293E2,7.108408E1,5.6873276E1,3.2358597E1,4.721877E1,4.594963E1,2.331108E1,7.674011E0,1.0322355E2,6.436623E1,3.4075794E1,2.0026306E1,3.2331104E1,2.422467E1,2.1995049E1,1.4526367E1,0E0,0E0,0E0,0E0,0E0,0E0,0E0,0E0,0E0,0E0,0E0,0E0,0E0,0E0,0E0,0E0,0E0,0E0,0E0,0E0,0E0,0E0,0E0,0E0,0E0,0E0,0E0,0E0,0E0,0E0,0E0,0E0,0E0,0E0,0E0,0E0,0E0,0E0,0E0,0E0,0E0,0E0,0E0,0E0,0E0,0E0,0E0,0E0,0E0,0E0,0E0,0E0,0E0,0E0,0E0,0E0,0E0,0E0,0E0,0E0,0E0,0E0,0E0,0E0],"parents":[2147483647,0,0,1,1,2,2,3,3,4,4,5,5,6,6,7,7,8,8,9,9,10,10,11,11,12,12,13,13,14,14,15,15,16,16,17,17,18,18,19,19,20,20,21,21,22,22,23,23,24,24,25,25,26,26,27,27,28,28,29,29,30,30,31,31,32,32,33,33,34,34,35,35,36,36,37,37,38,38,39,39,40,40,41,41,42,42,43,43,44,44,45,45,46,46,47,47,48,48,49,49,50,50,51,51,52,52,53,53,54,54,55,55,56,56,57,57,58,58,59,59,60,60,61,61,62,62],"right_children":[2,4,6,8,10,12,14,16,18,20,22,24,26,28,30,32,34,36,38,40,42,44,46,48,50,52,54,56,58,60,62,64,66,68,70,72,74,76,78,80,82,84,86,88,90,92,94,96,98,100,102,104,106,108,110,112,114,116,118,120,122,124,126,-1,-1,-1,-1,-1,-1,-1,-1,-1,-1,-1,-1,-1,-1,-1,-1,-1,-1,-1,-1,-1,-1,-1,-1,-1,-1,-1,-1,-1,-1,-1,-1,-1,-1,-1,-1,-1,-1,-1,-1,-1,-1,-1,-1,-1,-1,-1,-1,-1,-1,-1,-1,-1,-1,-1,-1,-1,-1,-1,-1,-1,-1,-1,-1],"split_conditions":[3.49238E-1,8.898247E-1,1.6805899E-1,5.2850056E-1,3.800466E-1,3.2787275E-1,1.6676062E-1,4.4567E-1,6.0361665E-1,1.3971013E0,7.3412013E-1,7.1992666E-1,3.1587198E-1,2.7371755E-1,-6.372118E-2,1.4021741E0,4.5589855E-1,2.968878E-1,1.5382129E-1,2.00376E-1,1.0791625E0,3.202048E-1,-3.235983E-1,6.398548E-1,3.5047156E-1,7.939232E-2,-3.8347924E-1,4.0557367E-1,-3.8710237E-1,-7.591944E-3,-5.6426334E-1,2.2507764E-1,1.8293945E0,5.078695E-1,3.8454807E-1,1.0852326E0,2.6624838E-1,5.293415E-1,1.0900881E-1,5.2985036E-1,9.5475566E-1,-6.341225E-2,-7.7407453E-3,4.9029738E-2,2.93614E-1,1.08691E0,-1.8728903E-1,9.072145E-1,2.131159E-2,1.7279018E-1,7.852649E-2,6.9133276E-1,9.9698044E-2,1.3645881E-1,-2.2794771E-1,2.4245653E-1,3.8585973E-1,3.0582044E-1,-3.9114127E-1,4.675276E-1,1.2863597E-1,-4.00897E-1,-3.3996576E-1,1.0568207E-1,6.5845296E-2,3.9169334E-2,-8.732236E-2,7.472018E-2,-1.1491978E-2,-1.4386462E-3,-9.577942E-2,6.3633315E-2,-7.4727766E-2,-1.5213813E-2,-1.0767609E-1,3.3949547E-2,-7.279172E-2,-4.48631E-2,-1.2271978E-1,1.04181305E-1,-6.2080366E-3,5.04315E-2,-5.3052604E-2,4.5001585E-2,-7.658535E-2,-1.6585497E-2,-1.273554E-1,6.947031E-2,-4.076816E-2,1.3384401E-2,-1.02319874E-1,1.3786234E-2,-1.0400646E-1,-7.864902E-2,-1.2597021E-1,7.8648016E-2,-6.8212114E-2,4.19745E-2,-5.824097E-2,5.5571437E-2,-5.3081013E-2,-1.918469E-2,-1.0487997E-1,5.774651E-2,-5.386382E-2,1.989393E-2,-1.0359035E-1,-9.52618E-3,-9.769481E-2,-7.518018E-2,-1.2189938E-1,5.3686377E-2,-7.627689E-2,-1.4344606E-2,-1.0382867E-1,2.9472426E-2,-8.889035E-2,-6.388732E-2,-1.1747439E-1,4.350743E-2,-6.885209E-2,-4.927928E-2,-1.13770224E-1,-1.1936854E-2,-9.9098E-2,-9.1704816E-2,-1.20831765E-1],"split_indices":[321,334,308,313,331,328,306,328,311,338,335,320,331,326,310,337,325,326,304,328,336,328,324,324,317,320,312,313,311,324,297,319,339,331,330,312,330,318,308,327,335,324,331,322,330,337,326,336,318,325,322,325,324,324,324,335,312,328,305,305,325,326,302,0,0,0,0,0,0,0,0,0,0,0,0,0,0,0,0,0,0,0,0,0,0,0,0,0,0,0,0,0,0,0,0,0,0,0,0,0,0,0,0,0,0,0,0,0,0,0,0,0,0,0,0,0,0,0,0,0,0,0,0,0,0,0,0],"split_type":[0,0,0,0,0,0,0,0,0,0,0,0,0,0,0,0,0,0,0,0,0,0,0,0,0,0,0,0,0,0,0,0,0,0,0,0,0,0,0,0,0,0,0,0,0,0,0,0,0,0,0,0,0,0,0,0,0,0,0,0,0,0,0,0,0,0,0,0,0,0,0,0,0,0,0,0,0,0,0,0,0,0,0,0,0,0,0,0,0,0,0,0,0,0,0,0,0,0,0,0,0,0,0,0,0,0,0,0,0,0,0,0,0,0,0,0,0,0,0,0,0,0,0,0,0,0,0],"sum_hessian":[2.6439709E4,1.6635871E4,9.803838E3,1.406594E4,2.5699307E3,3.3355674E3,6.468271E3,1.1702796E4,2.3631443E3,7.112847E2,1.8586459E3,2.1592288E3,1.1763387E3,1.5510001E3,4.9172705E3,9.111536E3,2.59126E3,1.5142283E3,8.489161E2,4.84908E2,2.2637674E2,3.7451294E2,1.4841329E3,1.6653926E3,4.938361E2,4.5568417E2,7.206546E2,7.998219E2,7.511782E2,4.6164203E2,4.455629E3,8.618377E3,4.9315863E2,1.7082655E3,8.829944E2,1.1489474E3,3.6528098E2,2.602097E2,5.8870636E2,2.9345636E2,1.9145163E2,8.690621E1,1.3947054E2,1.8351295E2,1.9099997E2,2.56819E2,1.227314E3,1.3648846E3,3.0050787E2,1.9411531E2,2.997208E2,1.838332E2,2.7185095E2,1.2696591E2,5.936887E2,4.7113855E2,3.2868335E2,9.8783875E1,6.5239435E2,1.1744795E2,3.441941E2,1.3771523E2,4.3179136E3,6.531028E3,2.087349E3,3.6711865E2,1.2603999E2,1.1118628E3,5.964027E2,3.7293317E2,5.1006122E2,1.0343662E3,1.14581154E2,1.6853036E2,1.967506E2,1.3863812E2,1.2157157E2,1.0218086E2,4.865255E2,2.7137094E2,2.2085403E1,1.1753736E2,7.391426E1,5.7106068E1,2.980014E1,1.720214E1,1.22268394E2,1.4166135E2,4.1851616E1,4.0771072E1,1.502289E2,1.0400089E2,1.528181E2,1.4731587E2,1.079998E3,1.2721924E3,9.269232E1,1.12127884E2,1.8837999E2,1.0994604E2,8.4169266E1,5.4276756E1,2.4544405E2,1.3165758E2,5.217564E1,3.415335E1,2.376976E2,4.856123E1,7.840468E1,4.3986073E1,5.4970264E2,3.9993982E2,7.1198746E1,1.402962E2,1.8838715E2,4.06524E1,5.8131474E1,8.40539E1,5.6834045E2,8.1246445E1,3.620151E1,7.734813E1,2.6684595E2,4.1695446E1,9.6019775E1,1.96055E2,4.1218584E3],"tree_param":{"num_deleted":"0","num_feature":"500","num_nodes":"127","size_leaf_vector":"1"}},{"base_weights":[-6.6197016E-3,3.3602902E-1,-7.5274855E-1,5.143744E-1,-5.7778907E-1,-1.306298E-1,-1.0060818E0,7.2600675E-1,-3.270633E-1,2.8872423E-2,-9.531868E-1,3.342547E-1,-8.4969E-1,-4.8470274E-1,-1.1120762E0,8.379288E-1,2.3681544E-1,2.204297E-1,-8.272037E-1,2.0745234E-1,-1.0096991E0,-2.3755944E-1,-1.1044219E0,6.183428E-1,-2.0880881E-1,-3.316624E-1,-1.0703378E0,1.1960891E-1,-1.0612898E0,-6.837172E-1,